digraph Tree {
node [shape=box] ;
0 [label="X[1] <= 3805.53\ngini = 0.6667\nsamples = 45000\nvalue = [15000, 15000, 15000]"] ;
1 [label="X[1] <= 2340.4937\ngini = 0.5\nsamples = 29989\nvalue = [15000, 0, 14989]"] ;
0 -> 1 [labeldistance=2.5, labelangle=45, headlabel="True"] ;
2 [label="X[1] <= 2327.4834\ngini = 0.0681\nsamples = 13463\nvalue = [12988, 0, 475]"] ;
1 -> 2 ;
3 [label="X[1] <= 2323.0071\ngini = 0.0113\nsamples = 12017\nvalue = [11949, 0, 68]"] ;
2 -> 3 ;
4 [label="X[1] <= 2320.0303\ngini = 0.0029\nsamples = 11543\nvalue = [11526, 0, 17]"] ;
3 -> 4 ;
5 [label="X[1] <= 2311.5369\ngini = 0.0014\nsamples = 11214\nvalue = [11206, 0, 8]"] ;
4 -> 5 ;
6 [label="gini = 0.0\nsamples = 10192\nvalue = [10192, 0, 0]"] ;
5 -> 6 ;
7 [label="X[1] <= 2311.543\ngini = 0.0155\nsamples = 1022\nvalue = [1014, 0, 8]"] ;
5 -> 7 ;
8 [label="gini = 0.0\nsamples = 4\nvalue = [0, 0, 4]"] ;
7 -> 8 ;
9 [label="X[1] <= 2317.4546\ngini = 0.0078\nsamples = 1018\nvalue = [1014, 0, 4]"] ;
7 -> 9 ;
10 [label="X[1] <= 2312.3618\ngini = 0.0027\nsamples = 748\nvalue = [747, 0, 1]"] ;
9 -> 10 ;
11 [label="X[1] <= 2312.3462\ngini = 0.0177\nsamples = 112\nvalue = [111, 0, 1]"] ;
10 -> 11 ;
12 [label="gini = 0.0\nsamples = 111\nvalue = [111, 0, 0]"] ;
11 -> 12 ;
13 [label="gini = 0.0\nsamples = 1\nvalue = [0, 0, 1]"] ;
11 -> 13 ;
14 [label="gini = 0.0\nsamples = 636\nvalue = [636, 0, 0]"] ;
10 -> 14 ;
15 [label="X[1] <= 2317.4587\ngini = 0.022\nsamples = 270\nvalue = [267, 0, 3]"] ;
9 -> 15 ;
16 [label="gini = 0.0\nsamples = 1\nvalue = [0, 0, 1]"] ;
15 -> 16 ;
17 [label="X[0] <= 4264.5342\ngini = 0.0148\nsamples = 269\nvalue = [267, 0, 2]"] ;
15 -> 17 ;
18 [label="gini = 0.0\nsamples = 136\nvalue = [136, 0, 0]"] ;
17 -> 18 ;
19 [label="X[0] <= 4265.1909\ngini = 0.0296\nsamples = 133\nvalue = [131, 0, 2]"] ;
17 -> 19 ;
20 [label="gini = 0.0\nsamples = 1\nvalue = [0, 0, 1]"] ;
19 -> 20 ;
21 [label="X[0] <= 4333.7783\ngini = 0.015\nsamples = 132\nvalue = [131, 0, 1]"] ;
19 -> 21 ;
22 [label="gini = 0.0\nsamples = 91\nvalue = [91, 0, 0]"] ;
21 -> 22 ;
23 [label="X[0] <= 4336.2749\ngini = 0.0476\nsamples = 41\nvalue = [40, 0, 1]"] ;
21 -> 23 ;
24 [label="gini = 0.0\nsamples = 1\nvalue = [0, 0, 1]"] ;
23 -> 24 ;
25 [label="gini = 0.0\nsamples = 40\nvalue = [40, 0, 0]"] ;
23 -> 25 ;
26 [label="X[1] <= 2320.0386\ngini = 0.0532\nsamples = 329\nvalue = [320, 0, 9]"] ;
4 -> 26 ;
27 [label="gini = 0.0\nsamples = 1\nvalue = [0, 0, 1]"] ;
26 -> 27 ;
28 [label="X[0] <= 4318.8599\ngini = 0.0476\nsamples = 328\nvalue = [320, 0, 8]"] ;
26 -> 28 ;
29 [label="X[1] <= 2320.3208\ngini = 0.0079\nsamples = 252\nvalue = [251, 0, 1]"] ;
28 -> 29 ;
30 [label="X[1] <= 2320.293\ngini = 0.0768\nsamples = 25\nvalue = [24, 0, 1]"] ;
29 -> 30 ;
31 [label="gini = 0.0\nsamples = 24\nvalue = [24, 0, 0]"] ;
30 -> 31 ;
32 [label="gini = 0.0\nsamples = 1\nvalue = [0, 0, 1]"] ;
30 -> 32 ;
33 [label="gini = 0.0\nsamples = 227\nvalue = [227, 0, 0]"] ;
29 -> 33 ;
34 [label="X[0] <= 4335.9717\ngini = 0.1672\nsamples = 76\nvalue = [69, 0, 7]"] ;
28 -> 34 ;
35 [label="X[0] <= 4331.5327\ngini = 0.4444\nsamples = 18\nvalue = [12, 0, 6]"] ;
34 -> 35 ;
36 [label="X[1] <= 2320.1133\ngini = 0.1528\nsamples = 12\nvalue = [11, 0, 1]"] ;
35 -> 36 ;
37 [label="gini = 0.0\nsamples = 1\nvalue = [0, 0, 1]"] ;
36 -> 37 ;
38 [label="gini = 0.0\nsamples = 11\nvalue = [11, 0, 0]"] ;
36 -> 38 ;
39 [label="X[0] <= 4334.0625\ngini = 0.2778\nsamples = 6\nvalue = [1, 0, 5]"] ;
35 -> 39 ;
40 [label="gini = 0.0\nsamples = 3\nvalue = [0, 0, 3]"] ;
39 -> 40 ;
41 [label="X[1] <= 2320.8926\ngini = 0.4444\nsamples = 3\nvalue = [1, 0, 2]"] ;
39 -> 41 ;
42 [label="gini = 0.0\nsamples = 2\nvalue = [0, 0, 2]"] ;
41 -> 42 ;
43 [label="gini = 0.0\nsamples = 1\nvalue = [1, 0, 0]"] ;
41 -> 43 ;
44 [label="X[1] <= 2322.2305\ngini = 0.0339\nsamples = 58\nvalue = [57, 0, 1]"] ;
34 -> 44 ;
45 [label="gini = 0.0\nsamples = 45\nvalue = [45, 0, 0]"] ;
44 -> 45 ;
46 [label="X[1] <= 2322.3066\ngini = 0.142\nsamples = 13\nvalue = [12, 0, 1]"] ;
44 -> 46 ;
47 [label="gini = 0.0\nsamples = 1\nvalue = [0, 0, 1]"] ;
46 -> 47 ;
48 [label="gini = 0.0\nsamples = 12\nvalue = [12, 0, 0]"] ;
46 -> 48 ;
49 [label="X[0] <= 4322.1143\ngini = 0.192\nsamples = 474\nvalue = [423, 0, 51]"] ;
3 -> 49 ;
50 [label="X[0] <= 4316.3276\ngini = 0.0172\nsamples = 346\nvalue = [343, 0, 3]"] ;
49 -> 50 ;
51 [label="X[0] <= 4268.959\ngini = 0.0117\nsamples = 340\nvalue = [338, 0, 2]"] ;
50 -> 51 ;
52 [label="gini = 0.0\nsamples = 224\nvalue = [224, 0, 0]"] ;
51 -> 52 ;
53 [label="X[0] <= 4268.9814\ngini = 0.0339\nsamples = 116\nvalue = [114, 0, 2]"] ;
51 -> 53 ;
54 [label="gini = 0.0\nsamples = 1\nvalue = [0, 0, 1]"] ;
53 -> 54 ;
55 [label="X[0] <= 4271.5142\ngini = 0.0172\nsamples = 115\nvalue = [114, 0, 1]"] ;
53 -> 55 ;
56 [label="X[0] <= 4271.481\ngini = 0.1172\nsamples = 16\nvalue = [15, 0, 1]"] ;
55 -> 56 ;
57 [label="gini = 0.0\nsamples = 15\nvalue = [15, 0, 0]"] ;
56 -> 57 ;
58 [label="gini = 0.0\nsamples = 1\nvalue = [0, 0, 1]"] ;
56 -> 58 ;
59 [label="gini = 0.0\nsamples = 99\nvalue = [99, 0, 0]"] ;
55 -> 59 ;
60 [label="X[1] <= 2323.6902\ngini = 0.2778\nsamples = 6\nvalue = [5, 0, 1]"] ;
50 -> 60 ;
61 [label="gini = 0.0\nsamples = 1\nvalue = [0, 0, 1]"] ;
60 -> 61 ;
62 [label="gini = 0.0\nsamples = 5\nvalue = [5, 0, 0]"] ;
60 -> 62 ;
63 [label="X[0] <= 4418.272\ngini = 0.4688\nsamples = 128\nvalue = [80, 0, 48]"] ;
49 -> 63 ;
64 [label="X[1] <= 2327.0146\ngini = 0.492\nsamples = 103\nvalue = [58, 0, 45]"] ;
63 -> 64 ;
65 [label="X[1] <= 2325.376\ngini = 0.498\nsamples = 94\nvalue = [50, 0, 44]"] ;
64 -> 65 ;
66 [label="X[0] <= 4324.6914\ngini = 0.474\nsamples = 57\nvalue = [35, 0, 22]"] ;
65 -> 66 ;
67 [label="gini = 0.0\nsamples = 2\nvalue = [0, 0, 2]"] ;
66 -> 67 ;
68 [label="X[1] <= 2325.0913\ngini = 0.4628\nsamples = 55\nvalue = [35, 0, 20]"] ;
66 -> 68 ;
69 [label="X[0] <= 4369.8867\ngini = 0.4831\nsamples = 49\nvalue = [29, 0, 20]"] ;
68 -> 69 ;
70 [label="X[0] <= 4367.9902\ngini = 0.4985\nsamples = 36\nvalue = [19, 0, 17]"] ;
69 -> 70 ;
71 [label="X[1] <= 2324.8101\ngini = 0.4931\nsamples = 34\nvalue = [19, 0, 15]"] ;
70 -> 71 ;
72 [label="X[1] <= 2324.7095\ngini = 0.4664\nsamples = 27\nvalue = [17, 0, 10]"] ;
71 -> 72 ;
73 [label="X[1] <= 2324.6279\ngini = 0.4959\nsamples = 22\nvalue = [12, 0, 10]"] ;
72 -> 73 ;
74 [label="X[1] <= 2324.05\ngini = 0.48\nsamples = 20\nvalue = [12, 0, 8]"] ;
73 -> 74 ;
75 [label="X[1] <= 2323.2844\ngini = 0.497\nsamples = 13\nvalue = [6, 0, 7]"] ;
74 -> 75 ;
76 [label="X[0] <= 4330.9565\ngini = 0.4688\nsamples = 8\nvalue = [5, 0, 3]"] ;
75 -> 76 ;
77 [label="gini = 0.0\nsamples = 1\nvalue = [0, 0, 1]"] ;
76 -> 77 ;
78 [label="X[1] <= 2323.0132\ngini = 0.4082\nsamples = 7\nvalue = [5, 0, 2]"] ;
76 -> 78 ;
79 [label="gini = 0.0\nsamples = 1\nvalue = [0, 0, 1]"] ;
78 -> 79 ;
80 [label="X[1] <= 2323.1436\ngini = 0.2778\nsamples = 6\nvalue = [5, 0, 1]"] ;
78 -> 80 ;
81 [label="gini = 0.0\nsamples = 3\nvalue = [3, 0, 0]"] ;
80 -> 81 ;
82 [label="X[0] <= 4349.7715\ngini = 0.4444\nsamples = 3\nvalue = [2, 0, 1]"] ;
80 -> 82 ;
83 [label="gini = 0.0\nsamples = 1\nvalue = [0, 0, 1]"] ;
82 -> 83 ;
84 [label="gini = 0.0\nsamples = 2\nvalue = [2, 0, 0]"] ;
82 -> 84 ;
85 [label="X[1] <= 2323.613\ngini = 0.32\nsamples = 5\nvalue = [1, 0, 4]"] ;
75 -> 85 ;
86 [label="gini = 0.0\nsamples = 3\nvalue = [0, 0, 3]"] ;
85 -> 86 ;
87 [label="X[1] <= 2323.7712\ngini = 0.5\nsamples = 2\nvalue = [1, 0, 1]"] ;
85 -> 87 ;
88 [label="gini = 0.0\nsamples = 1\nvalue = [1, 0, 0]"] ;
87 -> 88 ;
89 [label="gini = 0.0\nsamples = 1\nvalue = [0, 0, 1]"] ;
87 -> 89 ;
90 [label="X[1] <= 2324.4565\ngini = 0.2449\nsamples = 7\nvalue = [6, 0, 1]"] ;
74 -> 90 ;
91 [label="gini = 0.0\nsamples = 5\nvalue = [5, 0, 0]"] ;
90 -> 91 ;
92 [label="X[0] <= 4344.5688\ngini = 0.5\nsamples = 2\nvalue = [1, 0, 1]"] ;
90 -> 92 ;
93 [label="gini = 0.0\nsamples = 1\nvalue = [0, 0, 1]"] ;
92 -> 93 ;
94 [label="gini = 0.0\nsamples = 1\nvalue = [1, 0, 0]"] ;
92 -> 94 ;
95 [label="gini = 0.0\nsamples = 2\nvalue = [0, 0, 2]"] ;
73 -> 95 ;
96 [label="gini = 0.0\nsamples = 5\nvalue = [5, 0, 0]"] ;
72 -> 96 ;
97 [label="X[0] <= 4325.3008\ngini = 0.4082\nsamples = 7\nvalue = [2, 0, 5]"] ;
71 -> 97 ;
98 [label="gini = 0.0\nsamples = 1\nvalue = [1, 0, 0]"] ;
97 -> 98 ;
99 [label="X[1] <= 2325.0195\ngini = 0.2778\nsamples = 6\nvalue = [1, 0, 5]"] ;
97 -> 99 ;
100 [label="gini = 0.0\nsamples = 4\nvalue = [0, 0, 4]"] ;
99 -> 100 ;
101 [label="X[0] <= 4346.0083\ngini = 0.5\nsamples = 2\nvalue = [1, 0, 1]"] ;
99 -> 101 ;
102 [label="gini = 0.0\nsamples = 1\nvalue = [0, 0, 1]"] ;
101 -> 102 ;
103 [label="gini = 0.0\nsamples = 1\nvalue = [1, 0, 0]"] ;
101 -> 103 ;
104 [label="gini = 0.0\nsamples = 2\nvalue = [0, 0, 2]"] ;
70 -> 104 ;
105 [label="X[0] <= 4411.4023\ngini = 0.355\nsamples = 13\nvalue = [10, 0, 3]"] ;
69 -> 105 ;
106 [label="X[1] <= 2324.8362\ngini = 0.18\nsamples = 10\nvalue = [9, 0, 1]"] ;
105 -> 106 ;
107 [label="gini = 0.0\nsamples = 8\nvalue = [8, 0, 0]"] ;
106 -> 107 ;
108 [label="X[0] <= 4383.9385\ngini = 0.5\nsamples = 2\nvalue = [1, 0, 1]"] ;
106 -> 108 ;
109 [label="gini = 0.0\nsamples = 1\nvalue = [1, 0, 0]"] ;
108 -> 109 ;
110 [label="gini = 0.0\nsamples = 1\nvalue = [0, 0, 1]"] ;
108 -> 110 ;
111 [label="X[0] <= 4415.2627\ngini = 0.4444\nsamples = 3\nvalue = [1, 0, 2]"] ;
105 -> 111 ;
112 [label="gini = 0.0\nsamples = 2\nvalue = [0, 0, 2]"] ;
111 -> 112 ;
113 [label="gini = 0.0\nsamples = 1\nvalue = [1, 0, 0]"] ;
111 -> 113 ;
114 [label="gini = 0.0\nsamples = 6\nvalue = [6, 0, 0]"] ;
68 -> 114 ;
115 [label="X[0] <= 4329.1035\ngini = 0.4821\nsamples = 37\nvalue = [15, 0, 22]"] ;
65 -> 115 ;
116 [label="X[1] <= 2325.4473\ngini = 0.4082\nsamples = 7\nvalue = [5, 0, 2]"] ;
115 -> 116 ;
117 [label="gini = 0.0\nsamples = 1\nvalue = [0, 0, 1]"] ;
116 -> 117 ;
118 [label="X[0] <= 4324.9844\ngini = 0.2778\nsamples = 6\nvalue = [5, 0, 1]"] ;
116 -> 118 ;
119 [label="gini = 0.0\nsamples = 1\nvalue = [0, 0, 1]"] ;
118 -> 119 ;
120 [label="gini = 0.0\nsamples = 5\nvalue = [5, 0, 0]"] ;
118 -> 120 ;
121 [label="X[0] <= 4339.2412\ngini = 0.4444\nsamples = 30\nvalue = [10, 0, 20]"] ;
115 -> 121 ;
122 [label="X[0] <= 4330.793\ngini = 0.2188\nsamples = 8\nvalue = [1, 0, 7]"] ;
121 -> 122 ;
123 [label="X[1] <= 2326.2568\ngini = 0.5\nsamples = 2\nvalue = [1, 0, 1]"] ;
122 -> 123 ;
124 [label="gini = 0.0\nsamples = 1\nvalue = [1, 0, 0]"] ;
123 -> 124 ;
125 [label="gini = 0.0\nsamples = 1\nvalue = [0, 0, 1]"] ;
123 -> 125 ;
126 [label="gini = 0.0\nsamples = 6\nvalue = [0, 0, 6]"] ;
122 -> 126 ;
127 [label="X[0] <= 4411.3325\ngini = 0.4835\nsamples = 22\nvalue = [9, 0, 13]"] ;
121 -> 127 ;
128 [label="X[1] <= 2326.5874\ngini = 0.4986\nsamples = 19\nvalue = [9, 0, 10]"] ;
127 -> 128 ;
129 [label="X[1] <= 2325.9985\ngini = 0.48\nsamples = 15\nvalue = [6, 0, 9]"] ;
128 -> 129 ;
130 [label="X[1] <= 2325.6448\ngini = 0.4688\nsamples = 8\nvalue = [5, 0, 3]"] ;
129 -> 130 ;
131 [label="X[1] <= 2325.5132\ngini = 0.375\nsamples = 4\nvalue = [1, 0, 3]"] ;
130 -> 131 ;
132 [label="X[1] <= 2325.4551\ngini = 0.5\nsamples = 2\nvalue = [1, 0, 1]"] ;
131 -> 132 ;
133 [label="gini = 0.0\nsamples = 1\nvalue = [0, 0, 1]"] ;
132 -> 133 ;
134 [label="gini = 0.0\nsamples = 1\nvalue = [1, 0, 0]"] ;
132 -> 134 ;
135 [label="gini = 0.0\nsamples = 2\nvalue = [0, 0, 2]"] ;
131 -> 135 ;
136 [label="gini = 0.0\nsamples = 4\nvalue = [4, 0, 0]"] ;
130 -> 136 ;
137 [label="X[1] <= 2326.3076\ngini = 0.2449\nsamples = 7\nvalue = [1, 0, 6]"] ;
129 -> 137 ;
138 [label="gini = 0.0\nsamples = 4\nvalue = [0, 0, 4]"] ;
137 -> 138 ;
139 [label="X[1] <= 2326.4053\ngini = 0.4444\nsamples = 3\nvalue = [1, 0, 2]"] ;
137 -> 139 ;
140 [label="gini = 0.0\nsamples = 1\nvalue = [1, 0, 0]"] ;
139 -> 140 ;
141 [label="gini = 0.0\nsamples = 2\nvalue = [0, 0, 2]"] ;
139 -> 141 ;
142 [label="X[1] <= 2326.9404\ngini = 0.375\nsamples = 4\nvalue = [3, 0, 1]"] ;
128 -> 142 ;
143 [label="gini = 0.0\nsamples = 3\nvalue = [3, 0, 0]"] ;
142 -> 143 ;
144 [label="gini = 0.0\nsamples = 1\nvalue = [0, 0, 1]"] ;
142 -> 144 ;
145 [label="gini = 0.0\nsamples = 3\nvalue = [0, 0, 3]"] ;
127 -> 145 ;
146 [label="X[1] <= 2327.3918\ngini = 0.1975\nsamples = 9\nvalue = [8, 0, 1]"] ;
64 -> 146 ;
147 [label="gini = 0.0\nsamples = 7\nvalue = [7, 0, 0]"] ;
146 -> 147 ;
148 [label="X[0] <= 4375.3633\ngini = 0.5\nsamples = 2\nvalue = [1, 0, 1]"] ;
146 -> 148 ;
149 [label="gini = 0.0\nsamples = 1\nvalue = [0, 0, 1]"] ;
148 -> 149 ;
150 [label="gini = 0.0\nsamples = 1\nvalue = [1, 0, 0]"] ;
148 -> 150 ;
151 [label="X[1] <= 2324.8579\ngini = 0.2112\nsamples = 25\nvalue = [22, 0, 3]"] ;
63 -> 151 ;
152 [label="X[0] <= 4438.4268\ngini = 0.375\nsamples = 8\nvalue = [6, 0, 2]"] ;
151 -> 152 ;
153 [label="X[1] <= 2324.4065\ngini = 0.4444\nsamples = 3\nvalue = [1, 0, 2]"] ;
152 -> 153 ;
154 [label="gini = 0.0\nsamples = 1\nvalue = [1, 0, 0]"] ;
153 -> 154 ;
155 [label="gini = 0.0\nsamples = 2\nvalue = [0, 0, 2]"] ;
153 -> 155 ;
156 [label="gini = 0.0\nsamples = 5\nvalue = [5, 0, 0]"] ;
152 -> 156 ;
157 [label="X[1] <= 2326.5142\ngini = 0.1107\nsamples = 17\nvalue = [16, 0, 1]"] ;
151 -> 157 ;
158 [label="gini = 0.0\nsamples = 12\nvalue = [12, 0, 0]"] ;
157 -> 158 ;
159 [label="X[1] <= 2326.8057\ngini = 0.32\nsamples = 5\nvalue = [4, 0, 1]"] ;
157 -> 159 ;
160 [label="gini = 0.0\nsamples = 1\nvalue = [0, 0, 1]"] ;
159 -> 160 ;
161 [label="gini = 0.0\nsamples = 4\nvalue = [4, 0, 0]"] ;
159 -> 161 ;
162 [label="X[0] <= 4292.9448\ngini = 0.4045\nsamples = 1446\nvalue = [1039, 0, 407]"] ;
2 -> 162 ;
163 [label="X[0] <= 4277.1045\ngini = 0.0362\nsamples = 705\nvalue = [692, 0, 13]"] ;
162 -> 163 ;
164 [label="X[0] <= 4270.5752\ngini = 0.0068\nsamples = 588\nvalue = [586, 0, 2]"] ;
163 -> 164 ;
165 [label="gini = 0.0\nsamples = 530\nvalue = [530, 0, 0]"] ;
164 -> 165 ;
166 [label="X[0] <= 4270.6323\ngini = 0.0666\nsamples = 58\nvalue = [56, 0, 2]"] ;
164 -> 166 ;
167 [label="gini = 0.0\nsamples = 1\nvalue = [0, 0, 1]"] ;
166 -> 167 ;
168 [label="X[1] <= 2335.4688\ngini = 0.0345\nsamples = 57\nvalue = [56, 0, 1]"] ;
166 -> 168 ;
169 [label="gini = 0.0\nsamples = 39\nvalue = [39, 0, 0]"] ;
168 -> 169 ;
170 [label="X[1] <= 2335.6831\ngini = 0.1049\nsamples = 18\nvalue = [17, 0, 1]"] ;
168 -> 170 ;
171 [label="gini = 0.0\nsamples = 1\nvalue = [0, 0, 1]"] ;
170 -> 171 ;
172 [label="gini = 0.0\nsamples = 17\nvalue = [17, 0, 0]"] ;
170 -> 172 ;
173 [label="X[1] <= 2335.9292\ngini = 0.1704\nsamples = 117\nvalue = [106, 0, 11]"] ;
163 -> 173 ;
174 [label="X[0] <= 4278.0786\ngini = 0.0274\nsamples = 72\nvalue = [71, 0, 1]"] ;
173 -> 174 ;
175 [label="X[0] <= 4277.8711\ngini = 0.1975\nsamples = 9\nvalue = [8, 0, 1]"] ;
174 -> 175 ;
176 [label="gini = 0.0\nsamples = 8\nvalue = [8, 0, 0]"] ;
175 -> 176 ;
177 [label="gini = 0.0\nsamples = 1\nvalue = [0, 0, 1]"] ;
175 -> 177 ;
178 [label="gini = 0.0\nsamples = 63\nvalue = [63, 0, 0]"] ;
174 -> 178 ;
179 [label="X[1] <= 2336.4897\ngini = 0.3457\nsamples = 45\nvalue = [35, 0, 10]"] ;
173 -> 179 ;
180 [label="gini = 0.0\nsamples = 2\nvalue = [0, 0, 2]"] ;
179 -> 180 ;
181 [label="X[0] <= 4277.209\ngini = 0.3029\nsamples = 43\nvalue = [35, 0, 8]"] ;
179 -> 181 ;
182 [label="gini = 0.0\nsamples = 1\nvalue = [0, 0, 1]"] ;
181 -> 182 ;
183 [label="X[0] <= 4279.9717\ngini = 0.2778\nsamples = 42\nvalue = [35, 0, 7]"] ;
181 -> 183 ;
184 [label="gini = 0.0\nsamples = 10\nvalue = [10, 0, 0]"] ;
183 -> 184 ;
185 [label="X[0] <= 4281.2373\ngini = 0.3418\nsamples = 32\nvalue = [25, 0, 7]"] ;
183 -> 185 ;
186 [label="X[0] <= 4280.6294\ngini = 0.375\nsamples = 4\nvalue = [1, 0, 3]"] ;
185 -> 186 ;
187 [label="X[0] <= 4280.2988\ngini = 0.5\nsamples = 2\nvalue = [1, 0, 1]"] ;
186 -> 187 ;
188 [label="gini = 0.0\nsamples = 1\nvalue = [0, 0, 1]"] ;
187 -> 188 ;
189 [label="gini = 0.0\nsamples = 1\nvalue = [1, 0, 0]"] ;
187 -> 189 ;
190 [label="gini = 0.0\nsamples = 2\nvalue = [0, 0, 2]"] ;
186 -> 190 ;
191 [label="X[1] <= 2340.4023\ngini = 0.2449\nsamples = 28\nvalue = [24, 0, 4]"] ;
185 -> 191 ;
192 [label="X[1] <= 2338.4807\ngini = 0.1975\nsamples = 27\nvalue = [24, 0, 3]"] ;
191 -> 192 ;
193 [label="gini = 0.0\nsamples = 13\nvalue = [13, 0, 0]"] ;
192 -> 193 ;
194 [label="X[1] <= 2338.6143\ngini = 0.3367\nsamples = 14\nvalue = [11, 0, 3]"] ;
192 -> 194 ;
195 [label="gini = 0.0\nsamples = 1\nvalue = [0, 0, 1]"] ;
194 -> 195 ;
196 [label="X[1] <= 2339.2991\ngini = 0.2604\nsamples = 13\nvalue = [11, 0, 2]"] ;
194 -> 196 ;
197 [label="gini = 0.0\nsamples = 5\nvalue = [5, 0, 0]"] ;
196 -> 197 ;
198 [label="X[1] <= 2340.0081\ngini = 0.375\nsamples = 8\nvalue = [6, 0, 2]"] ;
196 -> 198 ;
199 [label="X[1] <= 2339.4966\ngini = 0.4444\nsamples = 3\nvalue = [1, 0, 2]"] ;
198 -> 199 ;
200 [label="gini = 0.0\nsamples = 1\nvalue = [0, 0, 1]"] ;
199 -> 200 ;
201 [label="X[1] <= 2339.8208\ngini = 0.5\nsamples = 2\nvalue = [1, 0, 1]"] ;
199 -> 201 ;
202 [label="gini = 0.0\nsamples = 1\nvalue = [1, 0, 0]"] ;
201 -> 202 ;
203 [label="gini = 0.0\nsamples = 1\nvalue = [0, 0, 1]"] ;
201 -> 203 ;
204 [label="gini = 0.0\nsamples = 5\nvalue = [5, 0, 0]"] ;
198 -> 204 ;
205 [label="gini = 0.0\nsamples = 1\nvalue = [0, 0, 1]"] ;
191 -> 205 ;
206 [label="X[1] <= 2335.0762\ngini = 0.498\nsamples = 741\nvalue = [347, 0, 394]"] ;
162 -> 206 ;
207 [label="X[0] <= 4318.2173\ngini = 0.4939\nsamples = 380\nvalue = [211, 0, 169]"] ;
206 -> 207 ;
208 [label="X[1] <= 2331.3823\ngini = 0.3562\nsamples = 69\nvalue = [53, 0, 16]"] ;
207 -> 208 ;
209 [label="gini = 0.0\nsamples = 25\nvalue = [25, 0, 0]"] ;
208 -> 209 ;
210 [label="X[0] <= 4299.293\ngini = 0.4628\nsamples = 44\nvalue = [28, 0, 16]"] ;
208 -> 210 ;
211 [label="X[0] <= 4293.1465\ngini = 0.1653\nsamples = 11\nvalue = [10, 0, 1]"] ;
210 -> 211 ;
212 [label="gini = 0.0\nsamples = 1\nvalue = [0, 0, 1]"] ;
211 -> 212 ;
213 [label="gini = 0.0\nsamples = 10\nvalue = [10, 0, 0]"] ;
211 -> 213 ;
214 [label="X[0] <= 4304.4531\ngini = 0.4959\nsamples = 33\nvalue = [18, 0, 15]"] ;
210 -> 214 ;
215 [label="X[1] <= 2333.1624\ngini = 0.32\nsamples = 10\nvalue = [2, 0, 8]"] ;
214 -> 215 ;
216 [label="X[1] <= 2332.5085\ngini = 0.48\nsamples = 5\nvalue = [2, 0, 3]"] ;
215 -> 216 ;
217 [label="X[0] <= 4301.5762\ngini = 0.375\nsamples = 4\nvalue = [1, 0, 3]"] ;
216 -> 217 ;
218 [label="X[0] <= 4300.4883\ngini = 0.5\nsamples = 2\nvalue = [1, 0, 1]"] ;
217 -> 218 ;
219 [label="gini = 0.0\nsamples = 1\nvalue = [0, 0, 1]"] ;
218 -> 219 ;
220 [label="gini = 0.0\nsamples = 1\nvalue = [1, 0, 0]"] ;
218 -> 220 ;
221 [label="gini = 0.0\nsamples = 2\nvalue = [0, 0, 2]"] ;
217 -> 221 ;
222 [label="gini = 0.0\nsamples = 1\nvalue = [1, 0, 0]"] ;
216 -> 222 ;
223 [label="gini = 0.0\nsamples = 5\nvalue = [0, 0, 5]"] ;
215 -> 223 ;
224 [label="X[1] <= 2332.2046\ngini = 0.4234\nsamples = 23\nvalue = [16, 0, 7]"] ;
214 -> 224 ;
225 [label="X[1] <= 2332.1519\ngini = 0.4959\nsamples = 11\nvalue = [6, 0, 5]"] ;
224 -> 225 ;
226 [label="X[0] <= 4306.1104\ngini = 0.4444\nsamples = 9\nvalue = [6, 0, 3]"] ;
225 -> 226 ;
227 [label="gini = 0.0\nsamples = 1\nvalue = [0, 0, 1]"] ;
226 -> 227 ;
228 [label="X[0] <= 4310.4141\ngini = 0.375\nsamples = 8\nvalue = [6, 0, 2]"] ;
226 -> 228 ;
229 [label="gini = 0.0\nsamples = 5\nvalue = [5, 0, 0]"] ;
228 -> 229 ;
230 [label="X[1] <= 2332.1252\ngini = 0.4444\nsamples = 3\nvalue = [1, 0, 2]"] ;
228 -> 230 ;
231 [label="gini = 0.0\nsamples = 2\nvalue = [0, 0, 2]"] ;
230 -> 231 ;
232 [label="gini = 0.0\nsamples = 1\nvalue = [1, 0, 0]"] ;
230 -> 232 ;
233 [label="gini = 0.0\nsamples = 2\nvalue = [0, 0, 2]"] ;
225 -> 233 ;
234 [label="X[1] <= 2333.9272\ngini = 0.2778\nsamples = 12\nvalue = [10, 0, 2]"] ;
224 -> 234 ;
235 [label="gini = 0.0\nsamples = 9\nvalue = [9, 0, 0]"] ;
234 -> 235 ;
236 [label="X[0] <= 4308.7378\ngini = 0.4444\nsamples = 3\nvalue = [1, 0, 2]"] ;
234 -> 236 ;
237 [label="gini = 0.0\nsamples = 1\nvalue = [1, 0, 0]"] ;
236 -> 237 ;
238 [label="gini = 0.0\nsamples = 2\nvalue = [0, 0, 2]"] ;
236 -> 238 ;
239 [label="X[0] <= 4406.5508\ngini = 0.4999\nsamples = 311\nvalue = [158, 0, 153]"] ;
207 -> 239 ;
240 [label="X[0] <= 4380.6514\ngini = 0.4957\nsamples = 227\nvalue = [103, 0, 124]"] ;
239 -> 240 ;
241 [label="X[0] <= 4333.3047\ngini = 0.4997\nsamples = 176\nvalue = [90, 0, 86]"] ;
240 -> 241 ;
242 [label="X[0] <= 4330.3965\ngini = 0.4815\nsamples = 52\nvalue = [21, 0, 31]"] ;
241 -> 242 ;
243 [label="X[0] <= 4327.2661\ngini = 0.497\nsamples = 39\nvalue = [21, 0, 18]"] ;
242 -> 243 ;
244 [label="X[1] <= 2331.7676\ngini = 0.4911\nsamples = 30\nvalue = [13, 0, 17]"] ;
243 -> 244 ;
245 [label="X[0] <= 4319.9839\ngini = 0.4628\nsamples = 11\nvalue = [7, 0, 4]"] ;
244 -> 245 ;
246 [label="X[1] <= 2330.8188\ngini = 0.375\nsamples = 4\nvalue = [1, 0, 3]"] ;
245 -> 246 ;
247 [label="gini = 0.0\nsamples = 3\nvalue = [0, 0, 3]"] ;
246 -> 247 ;
248 [label="gini = 0.0\nsamples = 1\nvalue = [1, 0, 0]"] ;
246 -> 248 ;
249 [label="X[0] <= 4325.6328\ngini = 0.2449\nsamples = 7\nvalue = [6, 0, 1]"] ;
245 -> 249 ;
250 [label="gini = 0.0\nsamples = 6\nvalue = [6, 0, 0]"] ;
249 -> 250 ;
251 [label="gini = 0.0\nsamples = 1\nvalue = [0, 0, 1]"] ;
249 -> 251 ;
252 [label="X[1] <= 2334.0627\ngini = 0.4321\nsamples = 19\nvalue = [6, 0, 13]"] ;
244 -> 252 ;
253 [label="X[0] <= 4323.0566\ngini = 0.3367\nsamples = 14\nvalue = [3, 0, 11]"] ;
252 -> 253 ;
254 [label="X[1] <= 2332.9009\ngini = 0.18\nsamples = 10\nvalue = [1, 0, 9]"] ;
253 -> 254 ;
255 [label="X[1] <= 2332.5386\ngini = 0.375\nsamples = 4\nvalue = [1, 0, 3]"] ;
254 -> 255 ;
256 [label="gini = 0.0\nsamples = 3\nvalue = [0, 0, 3]"] ;
255 -> 256 ;
257 [label="gini = 0.0\nsamples = 1\nvalue = [1, 0, 0]"] ;
255 -> 257 ;
258 [label="gini = 0.0\nsamples = 6\nvalue = [0, 0, 6]"] ;
254 -> 258 ;
259 [label="X[0] <= 4323.9058\ngini = 0.5\nsamples = 4\nvalue = [2, 0, 2]"] ;
253 -> 259 ;
260 [label="gini = 0.0\nsamples = 2\nvalue = [2, 0, 0]"] ;
259 -> 260 ;
261 [label="gini = 0.0\nsamples = 2\nvalue = [0, 0, 2]"] ;
259 -> 261 ;
262 [label="X[0] <= 4322.5088\ngini = 0.48\nsamples = 5\nvalue = [3, 0, 2]"] ;
252 -> 262 ;
263 [label="gini = 0.0\nsamples = 3\nvalue = [3, 0, 0]"] ;
262 -> 263 ;
264 [label="gini = 0.0\nsamples = 2\nvalue = [0, 0, 2]"] ;
262 -> 264 ;
265 [label="X[1] <= 2328.1411\ngini = 0.1975\nsamples = 9\nvalue = [8, 0, 1]"] ;
243 -> 265 ;
266 [label="X[1] <= 2328.0356\ngini = 0.5\nsamples = 2\nvalue = [1, 0, 1]"] ;
265 -> 266 ;
267 [label="gini = 0.0\nsamples = 1\nvalue = [1, 0, 0]"] ;
266 -> 267 ;
268 [label="gini = 0.0\nsamples = 1\nvalue = [0, 0, 1]"] ;
266 -> 268 ;
269 [label="gini = 0.0\nsamples = 7\nvalue = [7, 0, 0]"] ;
265 -> 269 ;
270 [label="gini = 0.0\nsamples = 13\nvalue = [0, 0, 13]"] ;
242 -> 270 ;
271 [label="X[1] <= 2330.3167\ngini = 0.4936\nsamples = 124\nvalue = [69, 0, 55]"] ;
241 -> 271 ;
272 [label="X[1] <= 2329.5393\ngini = 0.405\nsamples = 39\nvalue = [28, 0, 11]"] ;
271 -> 272 ;
273 [label="X[0] <= 4364.8447\ngini = 0.4829\nsamples = 27\nvalue = [16, 0, 11]"] ;
272 -> 273 ;
274 [label="X[0] <= 4337.3232\ngini = 0.3878\nsamples = 19\nvalue = [14, 0, 5]"] ;
273 -> 274 ;
275 [label="gini = 0.0\nsamples = 4\nvalue = [4, 0, 0]"] ;
274 -> 275 ;
276 [label="X[0] <= 4341.1631\ngini = 0.4444\nsamples = 15\nvalue = [10, 0, 5]"] ;
274 -> 276 ;
277 [label="gini = 0.0\nsamples = 2\nvalue = [0, 0, 2]"] ;
276 -> 277 ;
278 [label="X[1] <= 2328.3328\ngini = 0.355\nsamples = 13\nvalue = [10, 0, 3]"] ;
276 -> 278 ;
279 [label="X[1] <= 2328.1326\ngini = 0.4688\nsamples = 8\nvalue = [5, 0, 3]"] ;
278 -> 279 ;
280 [label="X[0] <= 4357.5352\ngini = 0.2778\nsamples = 6\nvalue = [5, 0, 1]"] ;
279 -> 280 ;
281 [label="gini = 0.0\nsamples = 4\nvalue = [4, 0, 0]"] ;
280 -> 281 ;
282 [label="X[1] <= 2328.0039\ngini = 0.5\nsamples = 2\nvalue = [1, 0, 1]"] ;
280 -> 282 ;
283 [label="gini = 0.0\nsamples = 1\nvalue = [0, 0, 1]"] ;
282 -> 283 ;
284 [label="gini = 0.0\nsamples = 1\nvalue = [1, 0, 0]"] ;
282 -> 284 ;
285 [label="gini = 0.0\nsamples = 2\nvalue = [0, 0, 2]"] ;
279 -> 285 ;
286 [label="gini = 0.0\nsamples = 5\nvalue = [5, 0, 0]"] ;
278 -> 286 ;
287 [label="X[0] <= 4374.8145\ngini = 0.375\nsamples = 8\nvalue = [2, 0, 6]"] ;
273 -> 287 ;
288 [label="gini = 0.0\nsamples = 5\nvalue = [0, 0, 5]"] ;
287 -> 288 ;
289 [label="X[0] <= 4377.9146\ngini = 0.4444\nsamples = 3\nvalue = [2, 0, 1]"] ;
287 -> 289 ;
290 [label="gini = 0.0\nsamples = 2\nvalue = [2, 0, 0]"] ;
289 -> 290 ;
291 [label="gini = 0.0\nsamples = 1\nvalue = [0, 0, 1]"] ;
289 -> 291 ;
292 [label="gini = 0.0\nsamples = 12\nvalue = [12, 0, 0]"] ;
272 -> 292 ;
293 [label="X[1] <= 2330.814\ngini = 0.4994\nsamples = 85\nvalue = [41, 0, 44]"] ;
271 -> 293 ;
294 [label="X[1] <= 2330.6143\ngini = 0.1653\nsamples = 11\nvalue = [1, 0, 10]"] ;
293 -> 294 ;
295 [label="gini = 0.0\nsamples = 6\nvalue = [0, 0, 6]"] ;
294 -> 295 ;
296 [label="X[1] <= 2330.6331\ngini = 0.32\nsamples = 5\nvalue = [1, 0, 4]"] ;
294 -> 296 ;
297 [label="gini = 0.0\nsamples = 1\nvalue = [1, 0, 0]"] ;
296 -> 297 ;
298 [label="gini = 0.0\nsamples = 4\nvalue = [0, 0, 4]"] ;
296 -> 298 ;
299 [label="X[0] <= 4379.0146\ngini = 0.4967\nsamples = 74\nvalue = [40, 0, 34]"] ;
293 -> 299 ;
300 [label="X[0] <= 4378.0234\ngini = 0.4996\nsamples = 68\nvalue = [35, 0, 33]"] ;
299 -> 300 ;
301 [label="X[0] <= 4375.1533\ngini = 0.4982\nsamples = 66\nvalue = [35, 0, 31]"] ;
300 -> 301 ;
302 [label="X[0] <= 4372.9722\ngini = 0.4999\nsamples = 63\nvalue = [32, 0, 31]"] ;
301 -> 302 ;
303 [label="X[0] <= 4369.5146\ngini = 0.4988\nsamples = 61\nvalue = [32, 0, 29]"] ;
302 -> 303 ;
304 [label="X[0] <= 4368.208\ngini = 0.5\nsamples = 56\nvalue = [28, 0, 28]"] ;
303 -> 304 ;
305 [label="X[0] <= 4362.4082\ngini = 0.4984\nsamples = 53\nvalue = [28, 0, 25]"] ;
304 -> 305 ;
306 [label="X[0] <= 4361.2266\ngini = 0.4991\nsamples = 46\nvalue = [22, 0, 24]"] ;
305 -> 306 ;
307 [label="X[1] <= 2333.4604\ngini = 0.4997\nsamples = 43\nvalue = [22, 0, 21]"] ;
306 -> 307 ;
308 [label="X[1] <= 2333.3037\ngini = 0.4911\nsamples = 30\nvalue = [17, 0, 13]"] ;
307 -> 308 ;
309 [label="X[1] <= 2332.7896\ngini = 0.5\nsamples = 26\nvalue = [13, 0, 13]"] ;
308 -> 309 ;
310 [label="X[1] <= 2332.7659\ngini = 0.48\nsamples = 20\nvalue = [12, 0, 8]"] ;
309 -> 310 ;
311 [label="X[0] <= 4348.0693\ngini = 0.4983\nsamples = 17\nvalue = [9, 0, 8]"] ;
310 -> 311 ;
312 [label="X[1] <= 2331.29\ngini = 0.375\nsamples = 8\nvalue = [6, 0, 2]"] ;
311 -> 312 ;
313 [label="X[0] <= 4346.6631\ngini = 0.5\nsamples = 4\nvalue = [2, 0, 2]"] ;
312 -> 313 ;
314 [label="gini = 0.0\nsamples = 2\nvalue = [0, 0, 2]"] ;
313 -> 314 ;
315 [label="gini = 0.0\nsamples = 2\nvalue = [2, 0, 0]"] ;
313 -> 315 ;
316 [label="gini = 0.0\nsamples = 4\nvalue = [4, 0, 0]"] ;
312 -> 316 ;
317 [label="X[0] <= 4353.5356\ngini = 0.4444\nsamples = 9\nvalue = [3, 0, 6]"] ;
311 -> 317 ;
318 [label="gini = 0.0\nsamples = 3\nvalue = [0, 0, 3]"] ;
317 -> 318 ;
319 [label="X[0] <= 4355.8354\ngini = 0.5\nsamples = 6\nvalue = [3, 0, 3]"] ;
317 -> 319 ;
320 [label="gini = 0.0\nsamples = 2\nvalue = [2, 0, 0]"] ;
319 -> 320 ;
321 [label="X[0] <= 4357.5234\ngini = 0.375\nsamples = 4\nvalue = [1, 0, 3]"] ;
319 -> 321 ;
322 [label="gini = 0.0\nsamples = 2\nvalue = [0, 0, 2]"] ;
321 -> 322 ;
323 [label="X[0] <= 4358.8354\ngini = 0.5\nsamples = 2\nvalue = [1, 0, 1]"] ;
321 -> 323 ;
324 [label="gini = 0.0\nsamples = 1\nvalue = [1, 0, 0]"] ;
323 -> 324 ;
325 [label="gini = 0.0\nsamples = 1\nvalue = [0, 0, 1]"] ;
323 -> 325 ;
326 [label="gini = 0.0\nsamples = 3\nvalue = [3, 0, 0]"] ;
310 -> 326 ;
327 [label="X[0] <= 4352.5869\ngini = 0.2778\nsamples = 6\nvalue = [1, 0, 5]"] ;
309 -> 327 ;
328 [label="gini = 0.0\nsamples = 5\nvalue = [0, 0, 5]"] ;
327 -> 328 ;
329 [label="gini = 0.0\nsamples = 1\nvalue = [1, 0, 0]"] ;
327 -> 329 ;
330 [label="gini = 0.0\nsamples = 4\nvalue = [4, 0, 0]"] ;
308 -> 330 ;
331 [label="X[1] <= 2334.4868\ngini = 0.4734\nsamples = 13\nvalue = [5, 0, 8]"] ;
307 -> 331 ;
332 [label="X[1] <= 2333.5859\ngini = 0.2449\nsamples = 7\nvalue = [1, 0, 6]"] ;
331 -> 332 ;
333 [label="X[1] <= 2333.5117\ngini = 0.4444\nsamples = 3\nvalue = [1, 0, 2]"] ;
332 -> 333 ;
334 [label="gini = 0.0\nsamples = 2\nvalue = [0, 0, 2]"] ;
333 -> 334 ;
335 [label="gini = 0.0\nsamples = 1\nvalue = [1, 0, 0]"] ;
333 -> 335 ;
336 [label="gini = 0.0\nsamples = 4\nvalue = [0, 0, 4]"] ;
332 -> 336 ;
337 [label="X[1] <= 2334.9722\ngini = 0.4444\nsamples = 6\nvalue = [4, 0, 2]"] ;
331 -> 337 ;
338 [label="gini = 0.0\nsamples = 3\nvalue = [3, 0, 0]"] ;
337 -> 338 ;
339 [label="X[0] <= 4339.0068\ngini = 0.4444\nsamples = 3\nvalue = [1, 0, 2]"] ;
337 -> 339 ;
340 [label="gini = 0.0\nsamples = 1\nvalue = [0, 0, 1]"] ;
339 -> 340 ;
341 [label="X[0] <= 4342.2373\ngini = 0.5\nsamples = 2\nvalue = [1, 0, 1]"] ;
339 -> 341 ;
342 [label="gini = 0.0\nsamples = 1\nvalue = [1, 0, 0]"] ;
341 -> 342 ;
343 [label="gini = 0.0\nsamples = 1\nvalue = [0, 0, 1]"] ;
341 -> 343 ;
344 [label="gini = 0.0\nsamples = 3\nvalue = [0, 0, 3]"] ;
306 -> 344 ;
345 [label="X[1] <= 2333.698\ngini = 0.2449\nsamples = 7\nvalue = [6, 0, 1]"] ;
305 -> 345 ;
346 [label="gini = 0.0\nsamples = 5\nvalue = [5, 0, 0]"] ;
345 -> 346 ;
347 [label="X[0] <= 4363.9961\ngini = 0.5\nsamples = 2\nvalue = [1, 0, 1]"] ;
345 -> 347 ;
348 [label="gini = 0.0\nsamples = 1\nvalue = [1, 0, 0]"] ;
347 -> 348 ;
349 [label="gini = 0.0\nsamples = 1\nvalue = [0, 0, 1]"] ;
347 -> 349 ;
350 [label="gini = 0.0\nsamples = 3\nvalue = [0, 0, 3]"] ;
304 -> 350 ;
351 [label="X[1] <= 2332.6382\ngini = 0.32\nsamples = 5\nvalue = [4, 0, 1]"] ;
303 -> 351 ;
352 [label="X[1] <= 2331.9663\ngini = 0.5\nsamples = 2\nvalue = [1, 0, 1]"] ;
351 -> 352 ;
353 [label="gini = 0.0\nsamples = 1\nvalue = [1, 0, 0]"] ;
352 -> 353 ;
354 [label="gini = 0.0\nsamples = 1\nvalue = [0, 0, 1]"] ;
352 -> 354 ;
355 [label="gini = 0.0\nsamples = 3\nvalue = [3, 0, 0]"] ;
351 -> 355 ;
356 [label="gini = 0.0\nsamples = 2\nvalue = [0, 0, 2]"] ;
302 -> 356 ;
357 [label="gini = 0.0\nsamples = 3\nvalue = [3, 0, 0]"] ;
301 -> 357 ;
358 [label="gini = 0.0\nsamples = 2\nvalue = [0, 0, 2]"] ;
300 -> 358 ;
359 [label="X[1] <= 2332.4302\ngini = 0.2778\nsamples = 6\nvalue = [5, 0, 1]"] ;
299 -> 359 ;
360 [label="gini = 0.0\nsamples = 3\nvalue = [3, 0, 0]"] ;
359 -> 360 ;
361 [label="X[0] <= 4380.4082\ngini = 0.4444\nsamples = 3\nvalue = [2, 0, 1]"] ;
359 -> 361 ;
362 [label="gini = 0.0\nsamples = 1\nvalue = [0, 0, 1]"] ;
361 -> 362 ;
363 [label="gini = 0.0\nsamples = 2\nvalue = [2, 0, 0]"] ;
361 -> 363 ;
364 [label="X[1] <= 2334.5303\ngini = 0.3799\nsamples = 51\nvalue = [13, 0, 38]"] ;
240 -> 364 ;
365 [label="X[0] <= 4401.3237\ngini = 0.335\nsamples = 47\nvalue = [10, 0, 37]"] ;
364 -> 365 ;
366 [label="X[1] <= 2329.0757\ngini = 0.2832\nsamples = 41\nvalue = [7, 0, 34]"] ;
365 -> 366 ;
367 [label="X[1] <= 2328.8062\ngini = 0.4628\nsamples = 11\nvalue = [4, 0, 7]"] ;
366 -> 367 ;
368 [label="X[0] <= 4394.917\ngini = 0.3457\nsamples = 9\nvalue = [2, 0, 7]"] ;
367 -> 368 ;
369 [label="X[0] <= 4393.6841\ngini = 0.48\nsamples = 5\nvalue = [2, 0, 3]"] ;
368 -> 369 ;
370 [label="X[1] <= 2328.1387\ngini = 0.375\nsamples = 4\nvalue = [1, 0, 3]"] ;
369 -> 370 ;
371 [label="gini = 0.0\nsamples = 2\nvalue = [0, 0, 2]"] ;
370 -> 371 ;
372 [label="X[1] <= 2328.4697\ngini = 0.5\nsamples = 2\nvalue = [1, 0, 1]"] ;
370 -> 372 ;
373 [label="gini = 0.0\nsamples = 1\nvalue = [1, 0, 0]"] ;
372 -> 373 ;
374 [label="gini = 0.0\nsamples = 1\nvalue = [0, 0, 1]"] ;
372 -> 374 ;
375 [label="gini = 0.0\nsamples = 1\nvalue = [1, 0, 0]"] ;
369 -> 375 ;
376 [label="gini = 0.0\nsamples = 4\nvalue = [0, 0, 4]"] ;
368 -> 376 ;
377 [label="gini = 0.0\nsamples = 2\nvalue = [2, 0, 0]"] ;
367 -> 377 ;
378 [label="X[1] <= 2332.8774\ngini = 0.18\nsamples = 30\nvalue = [3, 0, 27]"] ;
366 -> 378 ;
379 [label="gini = 0.0\nsamples = 18\nvalue = [0, 0, 18]"] ;
378 -> 379 ;
380 [label="X[1] <= 2333.2488\ngini = 0.375\nsamples = 12\nvalue = [3, 0, 9]"] ;
378 -> 380 ;
381 [label="X[0] <= 4394.0508\ngini = 0.4444\nsamples = 3\nvalue = [2, 0, 1]"] ;
380 -> 381 ;
382 [label="gini = 0.0\nsamples = 2\nvalue = [2, 0, 0]"] ;
381 -> 382 ;
383 [label="gini = 0.0\nsamples = 1\nvalue = [0, 0, 1]"] ;
381 -> 383 ;
384 [label="X[0] <= 4395.9268\ngini = 0.1975\nsamples = 9\nvalue = [1, 0, 8]"] ;
380 -> 384 ;
385 [label="gini = 0.0\nsamples = 8\nvalue = [0, 0, 8]"] ;
384 -> 385 ;
386 [label="gini = 0.0\nsamples = 1\nvalue = [1, 0, 0]"] ;
384 -> 386 ;
387 [label="X[0] <= 4404.0386\ngini = 0.5\nsamples = 6\nvalue = [3, 0, 3]"] ;
365 -> 387 ;
388 [label="gini = 0.0\nsamples = 3\nvalue = [3, 0, 0]"] ;
387 -> 388 ;
389 [label="gini = 0.0\nsamples = 3\nvalue = [0, 0, 3]"] ;
387 -> 389 ;
390 [label="X[0] <= 4397.3418\ngini = 0.375\nsamples = 4\nvalue = [3, 0, 1]"] ;
364 -> 390 ;
391 [label="gini = 0.0\nsamples = 3\nvalue = [3, 0, 0]"] ;
390 -> 391 ;
392 [label="gini = 0.0\nsamples = 1\nvalue = [0, 0, 1]"] ;
390 -> 392 ;
393 [label="X[0] <= 4409.3901\ngini = 0.4521\nsamples = 84\nvalue = [55, 0, 29]"] ;
239 -> 393 ;
394 [label="gini = 0.0\nsamples = 7\nvalue = [7, 0, 0]"] ;
393 -> 394 ;
395 [label="X[0] <= 4412.46\ngini = 0.4696\nsamples = 77\nvalue = [48, 0, 29]"] ;
393 -> 395 ;
396 [label="gini = 0.0\nsamples = 3\nvalue = [0, 0, 3]"] ;
395 -> 396 ;
397 [label="X[1] <= 2329.6973\ngini = 0.4558\nsamples = 74\nvalue = [48, 0, 26]"] ;
395 -> 397 ;
398 [label="X[1] <= 2329.2949\ngini = 0.495\nsamples = 20\nvalue = [9, 0, 11]"] ;
397 -> 398 ;
399 [label="X[0] <= 4466.0537\ngini = 0.48\nsamples = 15\nvalue = [9, 0, 6]"] ;
398 -> 399 ;
400 [label="X[0] <= 4436.9297\ngini = 0.32\nsamples = 10\nvalue = [8, 0, 2]"] ;
399 -> 400 ;
401 [label="X[0] <= 4418.9268\ngini = 0.5\nsamples = 4\nvalue = [2, 0, 2]"] ;
400 -> 401 ;
402 [label="gini = 0.0\nsamples = 1\nvalue = [1, 0, 0]"] ;
401 -> 402 ;
403 [label="X[1] <= 2327.8984\ngini = 0.4444\nsamples = 3\nvalue = [1, 0, 2]"] ;
401 -> 403 ;
404 [label="gini = 0.0\nsamples = 1\nvalue = [1, 0, 0]"] ;
403 -> 404 ;
405 [label="gini = 0.0\nsamples = 2\nvalue = [0, 0, 2]"] ;
403 -> 405 ;
406 [label="gini = 0.0\nsamples = 6\nvalue = [6, 0, 0]"] ;
400 -> 406 ;
407 [label="X[1] <= 2329.0884\ngini = 0.32\nsamples = 5\nvalue = [1, 0, 4]"] ;
399 -> 407 ;
408 [label="gini = 0.0\nsamples = 4\nvalue = [0, 0, 4]"] ;
407 -> 408 ;
409 [label="gini = 0.0\nsamples = 1\nvalue = [1, 0, 0]"] ;
407 -> 409 ;
410 [label="gini = 0.0\nsamples = 5\nvalue = [0, 0, 5]"] ;
398 -> 410 ;
411 [label="X[1] <= 2334.2446\ngini = 0.4012\nsamples = 54\nvalue = [39, 0, 15]"] ;
397 -> 411 ;
412 [label="X[1] <= 2330.0767\ngini = 0.3457\nsamples = 45\nvalue = [35, 0, 10]"] ;
411 -> 412 ;
413 [label="gini = 0.0\nsamples = 5\nvalue = [5, 0, 0]"] ;
412 -> 413 ;
414 [label="X[1] <= 2330.322\ngini = 0.375\nsamples = 40\nvalue = [30, 0, 10]"] ;
412 -> 414 ;
415 [label="gini = 0.0\nsamples = 1\nvalue = [0, 0, 1]"] ;
414 -> 415 ;
416 [label="X[0] <= 4515.751\ngini = 0.355\nsamples = 39\nvalue = [30, 0, 9]"] ;
414 -> 416 ;
417 [label="X[0] <= 4463.6631\ngini = 0.3047\nsamples = 32\nvalue = [26, 0, 6]"] ;
416 -> 417 ;
418 [label="X[0] <= 4458.0449\ngini = 0.3856\nsamples = 23\nvalue = [17, 0, 6]"] ;
417 -> 418 ;
419 [label="X[1] <= 2332.8853\ngini = 0.3084\nsamples = 21\nvalue = [17, 0, 4]"] ;
418 -> 419 ;
420 [label="gini = 0.0\nsamples = 9\nvalue = [9, 0, 0]"] ;
419 -> 420 ;
421 [label="X[0] <= 4415.6875\ngini = 0.4444\nsamples = 12\nvalue = [8, 0, 4]"] ;
419 -> 421 ;
422 [label="gini = 0.0\nsamples = 2\nvalue = [0, 0, 2]"] ;
421 -> 422 ;
423 [label="X[0] <= 4446.1235\ngini = 0.32\nsamples = 10\nvalue = [8, 0, 2]"] ;
421 -> 423 ;
424 [label="X[1] <= 2333.9692\ngini = 0.4444\nsamples = 6\nvalue = [4, 0, 2]"] ;
423 -> 424 ;
425 [label="X[0] <= 4425.4541\ngini = 0.4444\nsamples = 3\nvalue = [1, 0, 2]"] ;
424 -> 425 ;
426 [label="gini = 0.0\nsamples = 1\nvalue = [1, 0, 0]"] ;
425 -> 426 ;
427 [label="gini = 0.0\nsamples = 2\nvalue = [0, 0, 2]"] ;
425 -> 427 ;
428 [label="gini = 0.0\nsamples = 3\nvalue = [3, 0, 0]"] ;
424 -> 428 ;
429 [label="gini = 0.0\nsamples = 4\nvalue = [4, 0, 0]"] ;
423 -> 429 ;
430 [label="gini = 0.0\nsamples = 2\nvalue = [0, 0, 2]"] ;
418 -> 430 ;
431 [label="gini = 0.0\nsamples = 9\nvalue = [9, 0, 0]"] ;
417 -> 431 ;
432 [label="X[0] <= 4576.8599\ngini = 0.4898\nsamples = 7\nvalue = [4, 0, 3]"] ;
416 -> 432 ;
433 [label="X[1] <= 2332.158\ngini = 0.375\nsamples = 4\nvalue = [1, 0, 3]"] ;
432 -> 433 ;
434 [label="X[0] <= 4531.3838\ngini = 0.5\nsamples = 2\nvalue = [1, 0, 1]"] ;
433 -> 434 ;
435 [label="gini = 0.0\nsamples = 1\nvalue = [1, 0, 0]"] ;
434 -> 435 ;
436 [label="gini = 0.0\nsamples = 1\nvalue = [0, 0, 1]"] ;
434 -> 436 ;
437 [label="gini = 0.0\nsamples = 2\nvalue = [0, 0, 2]"] ;
433 -> 437 ;
438 [label="gini = 0.0\nsamples = 3\nvalue = [3, 0, 0]"] ;
432 -> 438 ;
439 [label="X[1] <= 2334.4775\ngini = 0.4938\nsamples = 9\nvalue = [4, 0, 5]"] ;
411 -> 439 ;
440 [label="X[0] <= 4448.2085\ngini = 0.32\nsamples = 5\nvalue = [1, 0, 4]"] ;
439 -> 440 ;
441 [label="gini = 0.0\nsamples = 1\nvalue = [1, 0, 0]"] ;
440 -> 441 ;
442 [label="gini = 0.0\nsamples = 4\nvalue = [0, 0, 4]"] ;
440 -> 442 ;
443 [label="X[0] <= 4432.6782\ngini = 0.375\nsamples = 4\nvalue = [3, 0, 1]"] ;
439 -> 443 ;
444 [label="gini = 0.0\nsamples = 1\nvalue = [0, 0, 1]"] ;
443 -> 444 ;
445 [label="gini = 0.0\nsamples = 3\nvalue = [3, 0, 0]"] ;
443 -> 445 ;
446 [label="X[0] <= 4460.3994\ngini = 0.4696\nsamples = 361\nvalue = [136, 0, 225]"] ;
206 -> 446 ;
447 [label="X[0] <= 4296.9629\ngini = 0.4579\nsamples = 341\nvalue = [121, 0, 220]"] ;
446 -> 447 ;
448 [label="gini = 0.0\nsamples = 11\nvalue = [0, 0, 11]"] ;
447 -> 448 ;
449 [label="X[0] <= 4317.9204\ngini = 0.4644\nsamples = 330\nvalue = [121, 0, 209]"] ;
447 -> 449 ;
450 [label="X[1] <= 2336.2666\ngini = 0.4995\nsamples = 66\nvalue = [34, 0, 32]"] ;
449 -> 450 ;
451 [label="X[1] <= 2335.8933\ngini = 0.32\nsamples = 10\nvalue = [8, 0, 2]"] ;
450 -> 451 ;
452 [label="X[1] <= 2335.2983\ngini = 0.5\nsamples = 4\nvalue = [2, 0, 2]"] ;
451 -> 452 ;
453 [label="gini = 0.0\nsamples = 1\nvalue = [1, 0, 0]"] ;
452 -> 453 ;
454 [label="X[1] <= 2335.4409\ngini = 0.4444\nsamples = 3\nvalue = [1, 0, 2]"] ;
452 -> 454 ;
455 [label="gini = 0.0\nsamples = 1\nvalue = [0, 0, 1]"] ;
454 -> 455 ;
456 [label="X[1] <= 2335.6514\ngini = 0.5\nsamples = 2\nvalue = [1, 0, 1]"] ;
454 -> 456 ;
457 [label="gini = 0.0\nsamples = 1\nvalue = [1, 0, 0]"] ;
456 -> 457 ;
458 [label="gini = 0.0\nsamples = 1\nvalue = [0, 0, 1]"] ;
456 -> 458 ;
459 [label="gini = 0.0\nsamples = 6\nvalue = [6, 0, 0]"] ;
451 -> 459 ;
460 [label="X[1] <= 2340.2739\ngini = 0.4974\nsamples = 56\nvalue = [26, 0, 30]"] ;
450 -> 460 ;
461 [label="X[0] <= 4298.9639\ngini = 0.4913\nsamples = 53\nvalue = [23, 0, 30]"] ;
460 -> 461 ;
462 [label="gini = 0.0\nsamples = 2\nvalue = [2, 0, 0]"] ;
461 -> 462 ;
463 [label="X[0] <= 4301.3076\ngini = 0.4844\nsamples = 51\nvalue = [21, 0, 30]"] ;
461 -> 463 ;
464 [label="X[1] <= 2338.3872\ngini = 0.1975\nsamples = 9\nvalue = [1, 0, 8]"] ;
463 -> 464 ;
465 [label="X[1] <= 2337.5483\ngini = 0.375\nsamples = 4\nvalue = [1, 0, 3]"] ;
464 -> 465 ;
466 [label="gini = 0.0\nsamples = 3\nvalue = [0, 0, 3]"] ;
465 -> 466 ;
467 [label="gini = 0.0\nsamples = 1\nvalue = [1, 0, 0]"] ;
465 -> 467 ;
468 [label="gini = 0.0\nsamples = 5\nvalue = [0, 0, 5]"] ;
464 -> 468 ;
469 [label="X[0] <= 4302.833\ngini = 0.4989\nsamples = 42\nvalue = [20, 0, 22]"] ;
463 -> 469 ;
470 [label="X[0] <= 4301.8984\ngini = 0.375\nsamples = 8\nvalue = [6, 0, 2]"] ;
469 -> 470 ;
471 [label="X[1] <= 2338.5007\ngini = 0.4444\nsamples = 3\nvalue = [1, 0, 2]"] ;
470 -> 471 ;
472 [label="gini = 0.0\nsamples = 1\nvalue = [1, 0, 0]"] ;
471 -> 472 ;
473 [label="gini = 0.0\nsamples = 2\nvalue = [0, 0, 2]"] ;
471 -> 473 ;
474 [label="gini = 0.0\nsamples = 5\nvalue = [5, 0, 0]"] ;
470 -> 474 ;
475 [label="X[0] <= 4315.6621\ngini = 0.4844\nsamples = 34\nvalue = [14, 0, 20]"] ;
469 -> 475 ;
476 [label="X[0] <= 4304.4399\ngini = 0.4444\nsamples = 27\nvalue = [9, 0, 18]"] ;
475 -> 476 ;
477 [label="gini = 0.0\nsamples = 3\nvalue = [0, 0, 3]"] ;
476 -> 477 ;
478 [label="X[0] <= 4305.6621\ngini = 0.4688\nsamples = 24\nvalue = [9, 0, 15]"] ;
476 -> 478 ;
479 [label="gini = 0.0\nsamples = 2\nvalue = [2, 0, 0]"] ;
478 -> 479 ;
480 [label="X[0] <= 4306.6035\ngini = 0.4339\nsamples = 22\nvalue = [7, 0, 15]"] ;
478 -> 480 ;
481 [label="gini = 0.0\nsamples = 4\nvalue = [0, 0, 4]"] ;
480 -> 481 ;
482 [label="X[0] <= 4307.084\ngini = 0.4753\nsamples = 18\nvalue = [7, 0, 11]"] ;
480 -> 482 ;
483 [label="gini = 0.0\nsamples = 2\nvalue = [2, 0, 0]"] ;
482 -> 483 ;
484 [label="X[1] <= 2340.0811\ngini = 0.4297\nsamples = 16\nvalue = [5, 0, 11]"] ;
482 -> 484 ;
485 [label="X[1] <= 2338.0352\ngini = 0.3911\nsamples = 15\nvalue = [4, 0, 11]"] ;
484 -> 485 ;
486 [label="X[1] <= 2337.6968\ngini = 0.5\nsamples = 6\nvalue = [3, 0, 3]"] ;
485 -> 486 ;
487 [label="X[0] <= 4307.9985\ngini = 0.375\nsamples = 4\nvalue = [1, 0, 3]"] ;
486 -> 487 ;
488 [label="X[1] <= 2336.8086\ngini = 0.5\nsamples = 2\nvalue = [1, 0, 1]"] ;
487 -> 488 ;
489 [label="gini = 0.0\nsamples = 1\nvalue = [0, 0, 1]"] ;
488 -> 489 ;
490 [label="gini = 0.0\nsamples = 1\nvalue = [1, 0, 0]"] ;
488 -> 490 ;
491 [label="gini = 0.0\nsamples = 2\nvalue = [0, 0, 2]"] ;
487 -> 491 ;
492 [label="gini = 0.0\nsamples = 2\nvalue = [2, 0, 0]"] ;
486 -> 492 ;
493 [label="X[0] <= 4313.9028\ngini = 0.1975\nsamples = 9\nvalue = [1, 0, 8]"] ;
485 -> 493 ;
494 [label="gini = 0.0\nsamples = 6\nvalue = [0, 0, 6]"] ;
493 -> 494 ;
495 [label="X[0] <= 4314.8848\ngini = 0.4444\nsamples = 3\nvalue = [1, 0, 2]"] ;
493 -> 495 ;
496 [label="gini = 0.0\nsamples = 1\nvalue = [1, 0, 0]"] ;
495 -> 496 ;
497 [label="gini = 0.0\nsamples = 2\nvalue = [0, 0, 2]"] ;
495 -> 497 ;
498 [label="gini = 0.0\nsamples = 1\nvalue = [1, 0, 0]"] ;
484 -> 498 ;
499 [label="X[1] <= 2338.6851\ngini = 0.4082\nsamples = 7\nvalue = [5, 0, 2]"] ;
475 -> 499 ;
500 [label="gini = 0.0\nsamples = 4\nvalue = [4, 0, 0]"] ;
499 -> 500 ;
501 [label="X[1] <= 2339.647\ngini = 0.4444\nsamples = 3\nvalue = [1, 0, 2]"] ;
499 -> 501 ;
502 [label="gini = 0.0\nsamples = 2\nvalue = [0, 0, 2]"] ;
501 -> 502 ;
503 [label="gini = 0.0\nsamples = 1\nvalue = [1, 0, 0]"] ;
501 -> 503 ;
504 [label="gini = 0.0\nsamples = 3\nvalue = [3, 0, 0]"] ;
460 -> 504 ;
505 [label="X[1] <= 2335.1682\ngini = 0.4419\nsamples = 264\nvalue = [87, 0, 177]"] ;
449 -> 505 ;
506 [label="gini = 0.0\nsamples = 6\nvalue = [0, 0, 6]"] ;
505 -> 506 ;
507 [label="X[1] <= 2335.1897\ngini = 0.447\nsamples = 258\nvalue = [87, 0, 171]"] ;
505 -> 507 ;
508 [label="gini = 0.0\nsamples = 2\nvalue = [2, 0, 0]"] ;
507 -> 508 ;
509 [label="X[0] <= 4348.5415\ngini = 0.4436\nsamples = 256\nvalue = [85, 0, 171]"] ;
507 -> 509 ;
510 [label="X[1] <= 2339.4775\ngini = 0.375\nsamples = 76\nvalue = [19, 0, 57]"] ;
509 -> 510 ;
511 [label="X[1] <= 2338.6653\ngini = 0.3237\nsamples = 64\nvalue = [13, 0, 51]"] ;
510 -> 511 ;
512 [label="X[1] <= 2338.3992\ngini = 0.3702\nsamples = 53\nvalue = [13, 0, 40]"] ;
511 -> 512 ;
513 [label="X[0] <= 4332.8086\ngini = 0.3383\nsamples = 51\nvalue = [11, 0, 40]"] ;
512 -> 513 ;
514 [label="X[0] <= 4332.5479\ngini = 0.4121\nsamples = 31\nvalue = [9, 0, 22]"] ;
513 -> 514 ;
515 [label="X[1] <= 2335.4126\ngini = 0.3911\nsamples = 30\nvalue = [8, 0, 22]"] ;
514 -> 515 ;
516 [label="X[1] <= 2335.1921\ngini = 0.4444\nsamples = 3\nvalue = [2, 0, 1]"] ;
515 -> 516 ;
517 [label="gini = 0.0\nsamples = 1\nvalue = [0, 0, 1]"] ;
516 -> 517 ;
518 [label="gini = 0.0\nsamples = 2\nvalue = [2, 0, 0]"] ;
516 -> 518 ;
519 [label="X[1] <= 2336.7231\ngini = 0.3457\nsamples = 27\nvalue = [6, 0, 21]"] ;
515 -> 519 ;
520 [label="gini = 0.0\nsamples = 7\nvalue = [0, 0, 7]"] ;
519 -> 520 ;
521 [label="X[1] <= 2337.1147\ngini = 0.42\nsamples = 20\nvalue = [6, 0, 14]"] ;
519 -> 521 ;
522 [label="X[1] <= 2337.0698\ngini = 0.48\nsamples = 5\nvalue = [3, 0, 2]"] ;
521 -> 522 ;
523 [label="X[0] <= 4325.0508\ngini = 0.4444\nsamples = 3\nvalue = [1, 0, 2]"] ;
522 -> 523 ;
524 [label="gini = 0.0\nsamples = 2\nvalue = [0, 0, 2]"] ;
523 -> 524 ;
525 [label="gini = 0.0\nsamples = 1\nvalue = [1, 0, 0]"] ;
523 -> 525 ;
526 [label="gini = 0.0\nsamples = 2\nvalue = [2, 0, 0]"] ;
522 -> 526 ;
527 [label="X[0] <= 4325.9722\ngini = 0.32\nsamples = 15\nvalue = [3, 0, 12]"] ;
521 -> 527 ;
528 [label="X[0] <= 4321.6162\ngini = 0.18\nsamples = 10\nvalue = [1, 0, 9]"] ;
527 -> 528 ;
529 [label="X[0] <= 4321.4766\ngini = 0.375\nsamples = 4\nvalue = [1, 0, 3]"] ;
528 -> 529 ;
530 [label="gini = 0.0\nsamples = 3\nvalue = [0, 0, 3]"] ;
529 -> 530 ;
531 [label="gini = 0.0\nsamples = 1\nvalue = [1, 0, 0]"] ;
529 -> 531 ;
532 [label="gini = 0.0\nsamples = 6\nvalue = [0, 0, 6]"] ;
528 -> 532 ;
533 [label="X[0] <= 4326.0508\ngini = 0.48\nsamples = 5\nvalue = [2, 0, 3]"] ;
527 -> 533 ;
534 [label="gini = 0.0\nsamples = 1\nvalue = [1, 0, 0]"] ;
533 -> 534 ;
535 [label="X[1] <= 2338.0591\ngini = 0.375\nsamples = 4\nvalue = [1, 0, 3]"] ;
533 -> 535 ;
536 [label="gini = 0.0\nsamples = 2\nvalue = [0, 0, 2]"] ;
535 -> 536 ;
537 [label="X[0] <= 4330.2173\ngini = 0.5\nsamples = 2\nvalue = [1, 0, 1]"] ;
535 -> 537 ;
538 [label="gini = 0.0\nsamples = 1\nvalue = [1, 0, 0]"] ;
537 -> 538 ;
539 [label="gini = 0.0\nsamples = 1\nvalue = [0, 0, 1]"] ;
537 -> 539 ;
540 [label="gini = 0.0\nsamples = 1\nvalue = [1, 0, 0]"] ;
514 -> 540 ;
541 [label="X[1] <= 2338.1704\ngini = 0.18\nsamples = 20\nvalue = [2, 0, 18]"] ;
513 -> 541 ;
542 [label="X[1] <= 2335.8962\ngini = 0.1049\nsamples = 18\nvalue = [1, 0, 17]"] ;
541 -> 542 ;
543 [label="X[1] <= 2335.8174\ngini = 0.2778\nsamples = 6\nvalue = [1, 0, 5]"] ;
542 -> 543 ;
544 [label="gini = 0.0\nsamples = 5\nvalue = [0, 0, 5]"] ;
543 -> 544 ;
545 [label="gini = 0.0\nsamples = 1\nvalue = [1, 0, 0]"] ;
543 -> 545 ;
546 [label="gini = 0.0\nsamples = 12\nvalue = [0, 0, 12]"] ;
542 -> 546 ;
547 [label="X[0] <= 4334.333\ngini = 0.5\nsamples = 2\nvalue = [1, 0, 1]"] ;
541 -> 547 ;
548 [label="gini = 0.0\nsamples = 1\nvalue = [0, 0, 1]"] ;
547 -> 548 ;
549 [label="gini = 0.0\nsamples = 1\nvalue = [1, 0, 0]"] ;
547 -> 549 ;
550 [label="gini = 0.0\nsamples = 2\nvalue = [2, 0, 0]"] ;
512 -> 550 ;
551 [label="gini = 0.0\nsamples = 11\nvalue = [0, 0, 11]"] ;
511 -> 551 ;
552 [label="X[1] <= 2339.6475\ngini = 0.5\nsamples = 12\nvalue = [6, 0, 6]"] ;
510 -> 552 ;
553 [label="gini = 0.0\nsamples = 3\nvalue = [3, 0, 0]"] ;
552 -> 553 ;
554 [label="X[0] <= 4328.8877\ngini = 0.4444\nsamples = 9\nvalue = [3, 0, 6]"] ;
552 -> 554 ;
555 [label="gini = 0.0\nsamples = 3\nvalue = [0, 0, 3]"] ;
554 -> 555 ;
556 [label="X[0] <= 4337.5269\ngini = 0.5\nsamples = 6\nvalue = [3, 0, 3]"] ;
554 -> 556 ;
557 [label="gini = 0.0\nsamples = 3\nvalue = [3, 0, 0]"] ;
556 -> 557 ;
558 [label="gini = 0.0\nsamples = 3\nvalue = [0, 0, 3]"] ;
556 -> 558 ;
559 [label="X[0] <= 4364.7173\ngini = 0.4644\nsamples = 180\nvalue = [66, 0, 114]"] ;
509 -> 559 ;
560 [label="X[1] <= 2339.936\ngini = 0.4967\nsamples = 37\nvalue = [20, 0, 17]"] ;
559 -> 560 ;
561 [label="X[1] <= 2339.6274\ngini = 0.4745\nsamples = 31\nvalue = [19, 0, 12]"] ;
560 -> 561 ;
562 [label="X[1] <= 2338.9666\ngini = 0.4938\nsamples = 27\nvalue = [15, 0, 12]"] ;
561 -> 562 ;
563 [label="X[0] <= 4361.666\ngini = 0.4537\nsamples = 23\nvalue = [15, 0, 8]"] ;
562 -> 563 ;
564 [label="X[0] <= 4360.7446\ngini = 0.4875\nsamples = 19\nvalue = [11, 0, 8]"] ;
563 -> 564 ;
565 [label="X[1] <= 2335.6868\ngini = 0.4567\nsamples = 17\nvalue = [11, 0, 6]"] ;
564 -> 565 ;
566 [label="gini = 0.0\nsamples = 2\nvalue = [0, 0, 2]"] ;
565 -> 566 ;
567 [label="X[0] <= 4356.46\ngini = 0.3911\nsamples = 15\nvalue = [11, 0, 4]"] ;
565 -> 567 ;
568 [label="gini = 0.0\nsamples = 7\nvalue = [7, 0, 0]"] ;
567 -> 568 ;
569 [label="X[1] <= 2337.9863\ngini = 0.5\nsamples = 8\nvalue = [4, 0, 4]"] ;
567 -> 569 ;
570 [label="X[0] <= 4358.8418\ngini = 0.4444\nsamples = 6\nvalue = [4, 0, 2]"] ;
569 -> 570 ;
571 [label="X[1] <= 2336.1929\ngini = 0.5\nsamples = 4\nvalue = [2, 0, 2]"] ;
570 -> 571 ;
572 [label="gini = 0.0\nsamples = 1\nvalue = [1, 0, 0]"] ;
571 -> 572 ;
573 [label="X[0] <= 4357.481\ngini = 0.4444\nsamples = 3\nvalue = [1, 0, 2]"] ;
571 -> 573 ;
574 [label="gini = 0.0\nsamples = 1\nvalue = [0, 0, 1]"] ;
573 -> 574 ;
575 [label="X[0] <= 4357.9507\ngini = 0.5\nsamples = 2\nvalue = [1, 0, 1]"] ;
573 -> 575 ;
576 [label="gini = 0.0\nsamples = 1\nvalue = [1, 0, 0]"] ;
575 -> 576 ;
577 [label="gini = 0.0\nsamples = 1\nvalue = [0, 0, 1]"] ;
575 -> 577 ;
578 [label="gini = 0.0\nsamples = 2\nvalue = [2, 0, 0]"] ;
570 -> 578 ;
579 [label="gini = 0.0\nsamples = 2\nvalue = [0, 0, 2]"] ;
569 -> 579 ;
580 [label="gini = 0.0\nsamples = 2\nvalue = [0, 0, 2]"] ;
564 -> 580 ;
581 [label="gini = 0.0\nsamples = 4\nvalue = [4, 0, 0]"] ;
563 -> 581 ;
582 [label="gini = 0.0\nsamples = 4\nvalue = [0, 0, 4]"] ;
562 -> 582 ;
583 [label="gini = 0.0\nsamples = 4\nvalue = [4, 0, 0]"] ;
561 -> 583 ;
584 [label="X[1] <= 2340.469\ngini = 0.2778\nsamples = 6\nvalue = [1, 0, 5]"] ;
560 -> 584 ;
585 [label="gini = 0.0\nsamples = 5\nvalue = [0, 0, 5]"] ;
584 -> 585 ;
586 [label="gini = 0.0\nsamples = 1\nvalue = [1, 0, 0]"] ;
584 -> 586 ;
587 [label="X[1] <= 2335.7153\ngini = 0.4364\nsamples = 143\nvalue = [46, 0, 97]"] ;
559 -> 587 ;
588 [label="X[1] <= 2335.4551\ngini = 0.4444\nsamples = 9\nvalue = [6, 0, 3]"] ;
587 -> 588 ;
589 [label="X[1] <= 2335.3696\ngini = 0.375\nsamples = 4\nvalue = [1, 0, 3]"] ;
588 -> 589 ;
590 [label="X[0] <= 4402.5811\ngini = 0.5\nsamples = 2\nvalue = [1, 0, 1]"] ;
589 -> 590 ;
591 [label="gini = 0.0\nsamples = 1\nvalue = [0, 0, 1]"] ;
590 -> 591 ;
592 [label="gini = 0.0\nsamples = 1\nvalue = [1, 0, 0]"] ;
590 -> 592 ;
593 [label="gini = 0.0\nsamples = 2\nvalue = [0, 0, 2]"] ;
589 -> 593 ;
594 [label="gini = 0.0\nsamples = 5\nvalue = [5, 0, 0]"] ;
588 -> 594 ;
595 [label="X[0] <= 4381.6387\ngini = 0.4188\nsamples = 134\nvalue = [40, 0, 94]"] ;
587 -> 595 ;
596 [label="X[0] <= 4376.7686\ngini = 0.2392\nsamples = 36\nvalue = [5, 0, 31]"] ;
595 -> 596 ;
597 [label="X[0] <= 4376.6904\ngini = 0.2934\nsamples = 28\nvalue = [5, 0, 23]"] ;
596 -> 597 ;
598 [label="X[1] <= 2339.8533\ngini = 0.2041\nsamples = 26\nvalue = [3, 0, 23]"] ;
597 -> 598 ;
599 [label="X[1] <= 2336.2896\ngini = 0.1472\nsamples = 25\nvalue = [2, 0, 23]"] ;
598 -> 599 ;
600 [label="X[1] <= 2336.1167\ngini = 0.4444\nsamples = 3\nvalue = [1, 0, 2]"] ;
599 -> 600 ;
601 [label="gini = 0.0\nsamples = 2\nvalue = [0, 0, 2]"] ;
600 -> 601 ;
602 [label="gini = 0.0\nsamples = 1\nvalue = [1, 0, 0]"] ;
600 -> 602 ;
603 [label="X[0] <= 4365.8438\ngini = 0.0868\nsamples = 22\nvalue = [1, 0, 21]"] ;
599 -> 603 ;
604 [label="gini = 0.0\nsamples = 1\nvalue = [1, 0, 0]"] ;
603 -> 604 ;
605 [label="gini = 0.0\nsamples = 21\nvalue = [0, 0, 21]"] ;
603 -> 605 ;
606 [label="gini = 0.0\nsamples = 1\nvalue = [1, 0, 0]"] ;
598 -> 606 ;
607 [label="gini = 0.0\nsamples = 2\nvalue = [2, 0, 0]"] ;
597 -> 607 ;
608 [label="gini = 0.0\nsamples = 8\nvalue = [0, 0, 8]"] ;
596 -> 608 ;
609 [label="X[0] <= 4383.6963\ngini = 0.4592\nsamples = 98\nvalue = [35, 0, 63]"] ;
595 -> 609 ;
610 [label="X[1] <= 2339.6934\ngini = 0.32\nsamples = 5\nvalue = [4, 0, 1]"] ;
609 -> 610 ;
611 [label="gini = 0.0\nsamples = 4\nvalue = [4, 0, 0]"] ;
610 -> 611 ;
612 [label="gini = 0.0\nsamples = 1\nvalue = [0, 0, 1]"] ;
610 -> 612 ;
613 [label="X[0] <= 4389.4111\ngini = 0.4444\nsamples = 93\nvalue = [31, 0, 62]"] ;
609 -> 613 ;
614 [label="gini = 0.0\nsamples = 9\nvalue = [0, 0, 9]"] ;
613 -> 614 ;
615 [label="X[0] <= 4390.6538\ngini = 0.4657\nsamples = 84\nvalue = [31, 0, 53]"] ;
613 -> 615 ;
616 [label="gini = 0.0\nsamples = 4\nvalue = [4, 0, 0]"] ;
615 -> 616 ;
617 [label="X[0] <= 4454.6509\ngini = 0.4472\nsamples = 80\nvalue = [27, 0, 53]"] ;
615 -> 617 ;
618 [label="X[0] <= 4451.1113\ngini = 0.4554\nsamples = 77\nvalue = [27, 0, 50]"] ;
617 -> 618 ;
619 [label="X[0] <= 4447.3687\ngini = 0.4414\nsamples = 73\nvalue = [24, 0, 49]"] ;
618 -> 619 ;
620 [label="X[0] <= 4445.7109\ngini = 0.4537\nsamples = 69\nvalue = [24, 0, 45]"] ;
619 -> 620 ;
621 [label="X[1] <= 2336.6772\ngini = 0.4477\nsamples = 68\nvalue = [23, 0, 45]"] ;
620 -> 621 ;
622 [label="X[1] <= 2336.0332\ngini = 0.497\nsamples = 13\nvalue = [6, 0, 7]"] ;
621 -> 622 ;
623 [label="gini = 0.0\nsamples = 2\nvalue = [0, 0, 2]"] ;
622 -> 623 ;
624 [label="X[1] <= 2336.1353\ngini = 0.4959\nsamples = 11\nvalue = [6, 0, 5]"] ;
622 -> 624 ;
625 [label="gini = 0.0\nsamples = 2\nvalue = [2, 0, 0]"] ;
624 -> 625 ;
626 [label="X[1] <= 2336.251\ngini = 0.4938\nsamples = 9\nvalue = [4, 0, 5]"] ;
624 -> 626 ;
627 [label="gini = 0.0\nsamples = 3\nvalue = [0, 0, 3]"] ;
626 -> 627 ;
628 [label="X[0] <= 4419.7354\ngini = 0.4444\nsamples = 6\nvalue = [4, 0, 2]"] ;
626 -> 628 ;
629 [label="gini = 0.0\nsamples = 2\nvalue = [2, 0, 0]"] ;
628 -> 629 ;
630 [label="X[1] <= 2336.3862\ngini = 0.5\nsamples = 4\nvalue = [2, 0, 2]"] ;
628 -> 630 ;
631 [label="gini = 0.0\nsamples = 1\nvalue = [1, 0, 0]"] ;
630 -> 631 ;
632 [label="X[1] <= 2336.52\ngini = 0.4444\nsamples = 3\nvalue = [1, 0, 2]"] ;
630 -> 632 ;
633 [label="gini = 0.0\nsamples = 1\nvalue = [0, 0, 1]"] ;
632 -> 633 ;
634 [label="X[0] <= 4429.6387\ngini = 0.5\nsamples = 2\nvalue = [1, 0, 1]"] ;
632 -> 634 ;
635 [label="gini = 0.0\nsamples = 1\nvalue = [0, 0, 1]"] ;
634 -> 635 ;
636 [label="gini = 0.0\nsamples = 1\nvalue = [1, 0, 0]"] ;
634 -> 636 ;
637 [label="X[0] <= 4440.3721\ngini = 0.4271\nsamples = 55\nvalue = [17, 0, 38]"] ;
621 -> 637 ;
638 [label="X[0] <= 4436.5811\ngini = 0.4444\nsamples = 51\nvalue = [17, 0, 34]"] ;
637 -> 638 ;
639 [label="X[1] <= 2339.2803\ngini = 0.4109\nsamples = 45\nvalue = [13, 0, 32]"] ;
638 -> 639 ;
640 [label="X[1] <= 2338.187\ngini = 0.3367\nsamples = 28\nvalue = [6, 0, 22]"] ;
639 -> 640 ;
641 [label="X[1] <= 2337.7222\ngini = 0.4592\nsamples = 14\nvalue = [5, 0, 9]"] ;
640 -> 641 ;
642 [label="X[0] <= 4415.8721\ngini = 0.2975\nsamples = 11\nvalue = [2, 0, 9]"] ;
641 -> 642 ;
643 [label="gini = 0.0\nsamples = 5\nvalue = [0, 0, 5]"] ;
642 -> 643 ;
644 [label="X[0] <= 4424.7959\ngini = 0.4444\nsamples = 6\nvalue = [2, 0, 4]"] ;
642 -> 644 ;
645 [label="X[0] <= 4417.6357\ngini = 0.4444\nsamples = 3\nvalue = [2, 0, 1]"] ;
644 -> 645 ;
646 [label="gini = 0.0\nsamples = 1\nvalue = [1, 0, 0]"] ;
645 -> 646 ;
647 [label="X[1] <= 2337.0654\ngini = 0.5\nsamples = 2\nvalue = [1, 0, 1]"] ;
645 -> 647 ;
648 [label="gini = 0.0\nsamples = 1\nvalue = [1, 0, 0]"] ;
647 -> 648 ;
649 [label="gini = 0.0\nsamples = 1\nvalue = [0, 0, 1]"] ;
647 -> 649 ;
650 [label="gini = 0.0\nsamples = 3\nvalue = [0, 0, 3]"] ;
644 -> 650 ;
651 [label="gini = 0.0\nsamples = 3\nvalue = [3, 0, 0]"] ;
641 -> 651 ;
652 [label="X[0] <= 4416.0869\ngini = 0.1327\nsamples = 14\nvalue = [1, 0, 13]"] ;
640 -> 652 ;
653 [label="gini = 0.0\nsamples = 9\nvalue = [0, 0, 9]"] ;
652 -> 653 ;
654 [label="X[0] <= 4421.8965\ngini = 0.32\nsamples = 5\nvalue = [1, 0, 4]"] ;
652 -> 654 ;
655 [label="gini = 0.0\nsamples = 1\nvalue = [1, 0, 0]"] ;
654 -> 655 ;
656 [label="gini = 0.0\nsamples = 4\nvalue = [0, 0, 4]"] ;
654 -> 656 ;
657 [label="X[1] <= 2339.3203\ngini = 0.4844\nsamples = 17\nvalue = [7, 0, 10]"] ;
639 -> 657 ;
658 [label="gini = 0.0\nsamples = 2\nvalue = [2, 0, 0]"] ;
657 -> 658 ;
659 [label="X[0] <= 4396.2871\ngini = 0.4444\nsamples = 15\nvalue = [5, 0, 10]"] ;
657 -> 659 ;
660 [label="gini = 0.0\nsamples = 1\nvalue = [1, 0, 0]"] ;
659 -> 660 ;
661 [label="X[0] <= 4426.2417\ngini = 0.4082\nsamples = 14\nvalue = [4, 0, 10]"] ;
659 -> 661 ;
662 [label="X[1] <= 2340.1411\ngini = 0.2975\nsamples = 11\nvalue = [2, 0, 9]"] ;
661 -> 662 ;
663 [label="X[0] <= 4399.0811\ngini = 0.1975\nsamples = 9\nvalue = [1, 0, 8]"] ;
662 -> 663 ;
664 [label="X[1] <= 2339.5\ngini = 0.5\nsamples = 2\nvalue = [1, 0, 1]"] ;
663 -> 664 ;
665 [label="gini = 0.0\nsamples = 1\nvalue = [0, 0, 1]"] ;
664 -> 665 ;
666 [label="gini = 0.0\nsamples = 1\nvalue = [1, 0, 0]"] ;
664 -> 666 ;
667 [label="gini = 0.0\nsamples = 7\nvalue = [0, 0, 7]"] ;
663 -> 667 ;
668 [label="X[1] <= 2340.2766\ngini = 0.5\nsamples = 2\nvalue = [1, 0, 1]"] ;
662 -> 668 ;
669 [label="gini = 0.0\nsamples = 1\nvalue = [1, 0, 0]"] ;
668 -> 669 ;
670 [label="gini = 0.0\nsamples = 1\nvalue = [0, 0, 1]"] ;
668 -> 670 ;
671 [label="X[1] <= 2340.1831\ngini = 0.4444\nsamples = 3\nvalue = [2, 0, 1]"] ;
661 -> 671 ;
672 [label="gini = 0.0\nsamples = 2\nvalue = [2, 0, 0]"] ;
671 -> 672 ;
673 [label="gini = 0.0\nsamples = 1\nvalue = [0, 0, 1]"] ;
671 -> 673 ;
674 [label="X[1] <= 2336.9897\ngini = 0.4444\nsamples = 6\nvalue = [4, 0, 2]"] ;
638 -> 674 ;
675 [label="gini = 0.0\nsamples = 1\nvalue = [0, 0, 1]"] ;
674 -> 675 ;
676 [label="X[1] <= 2339.1938\ngini = 0.32\nsamples = 5\nvalue = [4, 0, 1]"] ;
674 -> 676 ;
677 [label="gini = 0.0\nsamples = 4\nvalue = [4, 0, 0]"] ;
676 -> 677 ;
678 [label="gini = 0.0\nsamples = 1\nvalue = [0, 0, 1]"] ;
676 -> 678 ;
679 [label="gini = 0.0\nsamples = 4\nvalue = [0, 0, 4]"] ;
637 -> 679 ;
680 [label="gini = 0.0\nsamples = 1\nvalue = [1, 0, 0]"] ;
620 -> 680 ;
681 [label="gini = 0.0\nsamples = 4\nvalue = [0, 0, 4]"] ;
619 -> 681 ;
682 [label="X[0] <= 4452.1631\ngini = 0.375\nsamples = 4\nvalue = [3, 0, 1]"] ;
618 -> 682 ;
683 [label="gini = 0.0\nsamples = 2\nvalue = [2, 0, 0]"] ;
682 -> 683 ;
684 [label="X[0] <= 4453.2842\ngini = 0.5\nsamples = 2\nvalue = [1, 0, 1]"] ;
682 -> 684 ;
685 [label="gini = 0.0\nsamples = 1\nvalue = [0, 0, 1]"] ;
684 -> 685 ;
686 [label="gini = 0.0\nsamples = 1\nvalue = [1, 0, 0]"] ;
684 -> 686 ;
687 [label="gini = 0.0\nsamples = 3\nvalue = [0, 0, 3]"] ;
617 -> 687 ;
688 [label="X[0] <= 4483.5391\ngini = 0.375\nsamples = 20\nvalue = [15, 0, 5]"] ;
446 -> 688 ;
689 [label="gini = 0.0\nsamples = 6\nvalue = [6, 0, 0]"] ;
688 -> 689 ;
690 [label="X[0] <= 4580.5537\ngini = 0.4592\nsamples = 14\nvalue = [9, 0, 5]"] ;
688 -> 690 ;
691 [label="X[0] <= 4526.6631\ngini = 0.4959\nsamples = 11\nvalue = [6, 0, 5]"] ;
690 -> 691 ;
692 [label="X[0] <= 4492.1025\ngini = 0.375\nsamples = 8\nvalue = [6, 0, 2]"] ;
691 -> 692 ;
693 [label="X[0] <= 4486.8174\ngini = 0.4444\nsamples = 3\nvalue = [1, 0, 2]"] ;
692 -> 693 ;
694 [label="gini = 0.0\nsamples = 1\nvalue = [0, 0, 1]"] ;
693 -> 694 ;
695 [label="X[0] <= 4490.2749\ngini = 0.5\nsamples = 2\nvalue = [1, 0, 1]"] ;
693 -> 695 ;
696 [label="gini = 0.0\nsamples = 1\nvalue = [1, 0, 0]"] ;
695 -> 696 ;
697 [label="gini = 0.0\nsamples = 1\nvalue = [0, 0, 1]"] ;
695 -> 697 ;
698 [label="gini = 0.0\nsamples = 5\nvalue = [5, 0, 0]"] ;
692 -> 698 ;
699 [label="gini = 0.0\nsamples = 3\nvalue = [0, 0, 3]"] ;
691 -> 699 ;
700 [label="gini = 0.0\nsamples = 3\nvalue = [3, 0, 0]"] ;
690 -> 700 ;
701 [label="X[0] <= 4282.917\ngini = 0.2139\nsamples = 16526\nvalue = [2012, 0, 14514]"] ;
1 -> 701 ;
702 [label="X[0] <= 4274.043\ngini = 0.1288\nsamples = 1156\nvalue = [1076, 0, 80]"] ;
701 -> 702 ;
703 [label="X[0] <= 4272.5586\ngini = 0.0126\nsamples = 945\nvalue = [939, 0, 6]"] ;
702 -> 703 ;
704 [label="X[0] <= 4270.6514\ngini = 0.0043\nsamples = 921\nvalue = [919, 0, 2]"] ;
703 -> 704 ;
705 [label="gini = 0.0\nsamples = 885\nvalue = [885, 0, 0]"] ;
704 -> 705 ;
706 [label="X[0] <= 4270.6924\ngini = 0.1049\nsamples = 36\nvalue = [34, 0, 2]"] ;
704 -> 706 ;
707 [label="gini = 0.0\nsamples = 1\nvalue = [0, 0, 1]"] ;
706 -> 707 ;
708 [label="X[1] <= 2466.8433\ngini = 0.0555\nsamples = 35\nvalue = [34, 0, 1]"] ;
706 -> 708 ;
709 [label="gini = 0.0\nsamples = 33\nvalue = [33, 0, 0]"] ;
708 -> 709 ;
710 [label="X[1] <= 2670.2021\ngini = 0.5\nsamples = 2\nvalue = [1, 0, 1]"] ;
708 -> 710 ;
711 [label="gini = 0.0\nsamples = 1\nvalue = [0, 0, 1]"] ;
710 -> 711 ;
712 [label="gini = 0.0\nsamples = 1\nvalue = [1, 0, 0]"] ;
710 -> 712 ;
713 [label="X[0] <= 4272.8662\ngini = 0.2778\nsamples = 24\nvalue = [20, 0, 4]"] ;
703 -> 713 ;
714 [label="X[0] <= 4272.7803\ngini = 0.4898\nsamples = 7\nvalue = [3, 0, 4]"] ;
713 -> 714 ;
715 [label="X[0] <= 4272.623\ngini = 0.375\nsamples = 4\nvalue = [3, 0, 1]"] ;
714 -> 715 ;
716 [label="gini = 0.0\nsamples = 1\nvalue = [0, 0, 1]"] ;
715 -> 716 ;
717 [label="gini = 0.0\nsamples = 3\nvalue = [3, 0, 0]"] ;
715 -> 717 ;
718 [label="gini = 0.0\nsamples = 3\nvalue = [0, 0, 3]"] ;
714 -> 718 ;
719 [label="gini = 0.0\nsamples = 17\nvalue = [17, 0, 0]"] ;
713 -> 719 ;
720 [label="X[1] <= 2414.1772\ngini = 0.4554\nsamples = 211\nvalue = [137, 0, 74]"] ;
702 -> 720 ;
721 [label="X[1] <= 2368.8101\ngini = 0.3653\nsamples = 158\nvalue = [120, 0, 38]"] ;
720 -> 721 ;
722 [label="X[0] <= 4278.6787\ngini = 0.2209\nsamples = 87\nvalue = [76, 0, 11]"] ;
721 -> 722 ;
723 [label="X[0] <= 4277.8853\ngini = 0.0454\nsamples = 43\nvalue = [42, 0, 1]"] ;
722 -> 723 ;
724 [label="gini = 0.0\nsamples = 32\nvalue = [32, 0, 0]"] ;
723 -> 724 ;
725 [label="X[0] <= 4277.9434\ngini = 0.1653\nsamples = 11\nvalue = [10, 0, 1]"] ;
723 -> 725 ;
726 [label="gini = 0.0\nsamples = 1\nvalue = [0, 0, 1]"] ;
725 -> 726 ;
727 [label="gini = 0.0\nsamples = 10\nvalue = [10, 0, 0]"] ;
725 -> 727 ;
728 [label="X[0] <= 4279.5776\ngini = 0.3512\nsamples = 44\nvalue = [34, 0, 10]"] ;
722 -> 728 ;
729 [label="X[1] <= 2344.9546\ngini = 0.4959\nsamples = 11\nvalue = [6, 0, 5]"] ;
728 -> 729 ;
730 [label="gini = 0.0\nsamples = 2\nvalue = [0, 0, 2]"] ;
729 -> 730 ;
731 [label="X[0] <= 4279.3516\ngini = 0.4444\nsamples = 9\nvalue = [6, 0, 3]"] ;
729 -> 731 ;
732 [label="X[1] <= 2356.4009\ngini = 0.2778\nsamples = 6\nvalue = [5, 0, 1]"] ;
731 -> 732 ;
733 [label="gini = 0.0\nsamples = 5\nvalue = [5, 0, 0]"] ;
732 -> 733 ;
734 [label="gini = 0.0\nsamples = 1\nvalue = [0, 0, 1]"] ;
732 -> 734 ;
735 [label="X[1] <= 2363.9194\ngini = 0.4444\nsamples = 3\nvalue = [1, 0, 2]"] ;
731 -> 735 ;
736 [label="gini = 0.0\nsamples = 2\nvalue = [0, 0, 2]"] ;
735 -> 736 ;
737 [label="gini = 0.0\nsamples = 1\nvalue = [1, 0, 0]"] ;
735 -> 737 ;
738 [label="X[1] <= 2349.3728\ngini = 0.2571\nsamples = 33\nvalue = [28, 0, 5]"] ;
728 -> 738 ;
739 [label="X[1] <= 2346.1836\ngini = 0.0997\nsamples = 19\nvalue = [18, 0, 1]"] ;
738 -> 739 ;
740 [label="gini = 0.0\nsamples = 10\nvalue = [10, 0, 0]"] ;
739 -> 740 ;
741 [label="X[1] <= 2346.5469\ngini = 0.1975\nsamples = 9\nvalue = [8, 0, 1]"] ;
739 -> 741 ;
742 [label="gini = 0.0\nsamples = 1\nvalue = [0, 0, 1]"] ;
741 -> 742 ;
743 [label="gini = 0.0\nsamples = 8\nvalue = [8, 0, 0]"] ;
741 -> 743 ;
744 [label="X[1] <= 2353.0225\ngini = 0.4082\nsamples = 14\nvalue = [10, 0, 4]"] ;
738 -> 744 ;
745 [label="X[0] <= 4279.8955\ngini = 0.48\nsamples = 5\nvalue = [2, 0, 3]"] ;
744 -> 745 ;
746 [label="gini = 0.0\nsamples = 1\nvalue = [1, 0, 0]"] ;
745 -> 746 ;
747 [label="X[0] <= 4282.2422\ngini = 0.375\nsamples = 4\nvalue = [1, 0, 3]"] ;
745 -> 747 ;
748 [label="gini = 0.0\nsamples = 3\nvalue = [0, 0, 3]"] ;
747 -> 748 ;
749 [label="gini = 0.0\nsamples = 1\nvalue = [1, 0, 0]"] ;
747 -> 749 ;
750 [label="X[1] <= 2365.4175\ngini = 0.1975\nsamples = 9\nvalue = [8, 0, 1]"] ;
744 -> 750 ;
751 [label="gini = 0.0\nsamples = 7\nvalue = [7, 0, 0]"] ;
750 -> 751 ;
752 [label="X[1] <= 2366.4897\ngini = 0.5\nsamples = 2\nvalue = [1, 0, 1]"] ;
750 -> 752 ;
753 [label="gini = 0.0\nsamples = 1\nvalue = [0, 0, 1]"] ;
752 -> 753 ;
754 [label="gini = 0.0\nsamples = 1\nvalue = [1, 0, 0]"] ;
752 -> 754 ;
755 [label="X[1] <= 2382.813\ngini = 0.4713\nsamples = 71\nvalue = [44, 0, 27]"] ;
721 -> 755 ;
756 [label="X[0] <= 4276.7793\ngini = 0.4973\nsamples = 41\nvalue = [22, 0, 19]"] ;
755 -> 756 ;
757 [label="X[1] <= 2379.814\ngini = 0.426\nsamples = 13\nvalue = [4, 0, 9]"] ;
756 -> 757 ;
758 [label="X[1] <= 2376.2808\ngini = 0.5\nsamples = 8\nvalue = [4, 0, 4]"] ;
757 -> 758 ;
759 [label="X[0] <= 4275.2671\ngini = 0.32\nsamples = 5\nvalue = [1, 0, 4]"] ;
758 -> 759 ;
760 [label="X[1] <= 2373.811\ngini = 0.5\nsamples = 2\nvalue = [1, 0, 1]"] ;
759 -> 760 ;
761 [label="gini = 0.0\nsamples = 1\nvalue = [1, 0, 0]"] ;
760 -> 761 ;
762 [label="gini = 0.0\nsamples = 1\nvalue = [0, 0, 1]"] ;
760 -> 762 ;
763 [label="gini = 0.0\nsamples = 3\nvalue = [0, 0, 3]"] ;
759 -> 763 ;
764 [label="gini = 0.0\nsamples = 3\nvalue = [3, 0, 0]"] ;
758 -> 764 ;
765 [label="gini = 0.0\nsamples = 5\nvalue = [0, 0, 5]"] ;
757 -> 765 ;
766 [label="X[0] <= 4281.2207\ngini = 0.4592\nsamples = 28\nvalue = [18, 0, 10]"] ;
756 -> 766 ;
767 [label="X[1] <= 2381.7476\ngini = 0.3878\nsamples = 19\nvalue = [14, 0, 5]"] ;
766 -> 767 ;
768 [label="X[1] <= 2371.3438\ngini = 0.3457\nsamples = 18\nvalue = [14, 0, 4]"] ;
767 -> 768 ;
769 [label="X[1] <= 2369.9829\ngini = 0.5\nsamples = 4\nvalue = [2, 0, 2]"] ;
768 -> 769 ;
770 [label="gini = 0.0\nsamples = 2\nvalue = [2, 0, 0]"] ;
769 -> 770 ;
771 [label="gini = 0.0\nsamples = 2\nvalue = [0, 0, 2]"] ;
769 -> 771 ;
772 [label="X[0] <= 4279.4463\ngini = 0.2449\nsamples = 14\nvalue = [12, 0, 2]"] ;
768 -> 772 ;
773 [label="gini = 0.0\nsamples = 7\nvalue = [7, 0, 0]"] ;
772 -> 773 ;
774 [label="X[0] <= 4279.8105\ngini = 0.4082\nsamples = 7\nvalue = [5, 0, 2]"] ;
772 -> 774 ;
775 [label="gini = 0.0\nsamples = 1\nvalue = [0, 0, 1]"] ;
774 -> 775 ;
776 [label="X[1] <= 2380.1101\ngini = 0.2778\nsamples = 6\nvalue = [5, 0, 1]"] ;
774 -> 776 ;
777 [label="X[0] <= 4280.9092\ngini = 0.4444\nsamples = 3\nvalue = [2, 0, 1]"] ;
776 -> 777 ;
778 [label="gini = 0.0\nsamples = 1\nvalue = [0, 0, 1]"] ;
777 -> 778 ;
779 [label="gini = 0.0\nsamples = 2\nvalue = [2, 0, 0]"] ;
777 -> 779 ;
780 [label="gini = 0.0\nsamples = 3\nvalue = [3, 0, 0]"] ;
776 -> 780 ;
781 [label="gini = 0.0\nsamples = 1\nvalue = [0, 0, 1]"] ;
767 -> 781 ;
782 [label="X[0] <= 4282.5313\ngini = 0.4938\nsamples = 9\nvalue = [4, 0, 5]"] ;
766 -> 782 ;
783 [label="X[1] <= 2380.6177\ngini = 0.2778\nsamples = 6\nvalue = [1, 0, 5]"] ;
782 -> 783 ;
784 [label="gini = 0.0\nsamples = 5\nvalue = [0, 0, 5]"] ;
783 -> 784 ;
785 [label="gini = 0.0\nsamples = 1\nvalue = [1, 0, 0]"] ;
783 -> 785 ;
786 [label="gini = 0.0\nsamples = 3\nvalue = [3, 0, 0]"] ;
782 -> 786 ;
787 [label="X[0] <= 4278.2305\ngini = 0.3911\nsamples = 30\nvalue = [22, 0, 8]"] ;
755 -> 787 ;
788 [label="gini = 0.0\nsamples = 10\nvalue = [10, 0, 0]"] ;
787 -> 788 ;
789 [label="X[0] <= 4279.1191\ngini = 0.48\nsamples = 20\nvalue = [12, 0, 8]"] ;
787 -> 789 ;
790 [label="gini = 0.0\nsamples = 2\nvalue = [0, 0, 2]"] ;
789 -> 790 ;
791 [label="X[0] <= 4281.2695\ngini = 0.4444\nsamples = 18\nvalue = [12, 0, 6]"] ;
789 -> 791 ;
792 [label="X[0] <= 4280.0059\ngini = 0.2188\nsamples = 8\nvalue = [7, 0, 1]"] ;
791 -> 792 ;
793 [label="X[1] <= 2408.3491\ngini = 0.5\nsamples = 2\nvalue = [1, 0, 1]"] ;
792 -> 793 ;
794 [label="gini = 0.0\nsamples = 1\nvalue = [0, 0, 1]"] ;
793 -> 794 ;
795 [label="gini = 0.0\nsamples = 1\nvalue = [1, 0, 0]"] ;
793 -> 795 ;
796 [label="gini = 0.0\nsamples = 6\nvalue = [6, 0, 0]"] ;
792 -> 796 ;
797 [label="X[1] <= 2387.9382\ngini = 0.5\nsamples = 10\nvalue = [5, 0, 5]"] ;
791 -> 797 ;
798 [label="gini = 0.0\nsamples = 3\nvalue = [3, 0, 0]"] ;
797 -> 798 ;
799 [label="X[1] <= 2391.7524\ngini = 0.4082\nsamples = 7\nvalue = [2, 0, 5]"] ;
797 -> 799 ;
800 [label="X[0] <= 4281.6792\ngini = 0.5\nsamples = 4\nvalue = [2, 0, 2]"] ;
799 -> 800 ;
801 [label="gini = 0.0\nsamples = 1\nvalue = [1, 0, 0]"] ;
800 -> 801 ;
802 [label="X[0] <= 4282.2168\ngini = 0.4444\nsamples = 3\nvalue = [1, 0, 2]"] ;
800 -> 802 ;
803 [label="gini = 0.0\nsamples = 1\nvalue = [0, 0, 1]"] ;
802 -> 803 ;
804 [label="X[0] <= 4282.7656\ngini = 0.5\nsamples = 2\nvalue = [1, 0, 1]"] ;
802 -> 804 ;
805 [label="gini = 0.0\nsamples = 1\nvalue = [1, 0, 0]"] ;
804 -> 805 ;
806 [label="gini = 0.0\nsamples = 1\nvalue = [0, 0, 1]"] ;
804 -> 806 ;
807 [label="gini = 0.0\nsamples = 3\nvalue = [0, 0, 3]"] ;
799 -> 807 ;
808 [label="X[1] <= 2574.3848\ngini = 0.4357\nsamples = 53\nvalue = [17, 0, 36]"] ;
720 -> 808 ;
809 [label="X[0] <= 4282.0088\ngini = 0.2726\nsamples = 43\nvalue = [7, 0, 36]"] ;
808 -> 809 ;
810 [label="X[1] <= 2522.197\ngini = 0.2188\nsamples = 40\nvalue = [5, 0, 35]"] ;
809 -> 810 ;
811 [label="X[1] <= 2419.054\ngini = 0.1107\nsamples = 34\nvalue = [2, 0, 32]"] ;
810 -> 811 ;
812 [label="gini = 0.0\nsamples = 1\nvalue = [1, 0, 0]"] ;
811 -> 812 ;
813 [label="X[1] <= 2422.8711\ngini = 0.0588\nsamples = 33\nvalue = [1, 0, 32]"] ;
811 -> 813 ;
814 [label="X[1] <= 2422.2129\ngini = 0.4444\nsamples = 3\nvalue = [1, 0, 2]"] ;
813 -> 814 ;
815 [label="gini = 0.0\nsamples = 2\nvalue = [0, 0, 2]"] ;
814 -> 815 ;
816 [label="gini = 0.0\nsamples = 1\nvalue = [1, 0, 0]"] ;
814 -> 816 ;
817 [label="gini = 0.0\nsamples = 30\nvalue = [0, 0, 30]"] ;
813 -> 817 ;
818 [label="X[0] <= 4276.5923\ngini = 0.5\nsamples = 6\nvalue = [3, 0, 3]"] ;
810 -> 818 ;
819 [label="gini = 0.0\nsamples = 2\nvalue = [2, 0, 0]"] ;
818 -> 819 ;
820 [label="X[0] <= 4279.4072\ngini = 0.375\nsamples = 4\nvalue = [1, 0, 3]"] ;
818 -> 820 ;
821 [label="gini = 0.0\nsamples = 2\nvalue = [0, 0, 2]"] ;
820 -> 821 ;
822 [label="X[1] <= 2554.6528\ngini = 0.5\nsamples = 2\nvalue = [1, 0, 1]"] ;
820 -> 822 ;
823 [label="gini = 0.0\nsamples = 1\nvalue = [1, 0, 0]"] ;
822 -> 823 ;
824 [label="gini = 0.0\nsamples = 1\nvalue = [0, 0, 1]"] ;
822 -> 824 ;
825 [label="X[0] <= 4282.5127\ngini = 0.4444\nsamples = 3\nvalue = [2, 0, 1]"] ;
809 -> 825 ;
826 [label="gini = 0.0\nsamples = 2\nvalue = [2, 0, 0]"] ;
825 -> 826 ;
827 [label="gini = 0.0\nsamples = 1\nvalue = [0, 0, 1]"] ;
825 -> 827 ;
828 [label="gini = 0.0\nsamples = 10\nvalue = [10, 0, 0]"] ;
808 -> 828 ;
829 [label="X[1] <= 2369.5457\ngini = 0.1144\nsamples = 15370\nvalue = [936, 0, 14434]"] ;
701 -> 829 ;
830 [label="X[0] <= 4296.8296\ngini = 0.2814\nsamples = 3347\nvalue = [567, 0, 2780]"] ;
829 -> 830 ;
831 [label="X[1] <= 2343.3628\ngini = 0.5\nsamples = 230\nvalue = [115, 0, 115]"] ;
830 -> 831 ;
832 [label="X[1] <= 2341.4209\ngini = 0.1107\nsamples = 17\nvalue = [16, 0, 1]"] ;
831 -> 832 ;
833 [label="X[0] <= 4289.9185\ngini = 0.4444\nsamples = 3\nvalue = [2, 0, 1]"] ;
832 -> 833 ;
834 [label="gini = 0.0\nsamples = 2\nvalue = [2, 0, 0]"] ;
833 -> 834 ;
835 [label="gini = 0.0\nsamples = 1\nvalue = [0, 0, 1]"] ;
833 -> 835 ;
836 [label="gini = 0.0\nsamples = 14\nvalue = [14, 0, 0]"] ;
832 -> 836 ;
837 [label="X[0] <= 4289.0586\ngini = 0.4975\nsamples = 213\nvalue = [99, 0, 114]"] ;
831 -> 837 ;
838 [label="X[0] <= 4288.8481\ngini = 0.4851\nsamples = 87\nvalue = [51, 0, 36]"] ;
837 -> 838 ;
839 [label="X[1] <= 2361.4526\ngini = 0.4926\nsamples = 82\nvalue = [46, 0, 36]"] ;
838 -> 839 ;
840 [label="X[1] <= 2351.5366\ngini = 0.4734\nsamples = 65\nvalue = [40, 0, 25]"] ;
839 -> 840 ;
841 [label="X[0] <= 4286.5972\ngini = 0.4997\nsamples = 43\nvalue = [21, 0, 22]"] ;
840 -> 841 ;
842 [label="X[0] <= 4283.4287\ngini = 0.4444\nsamples = 21\nvalue = [14, 0, 7]"] ;
841 -> 842 ;
843 [label="gini = 0.0\nsamples = 2\nvalue = [0, 0, 2]"] ;
842 -> 843 ;
844 [label="X[1] <= 2350.2271\ngini = 0.3878\nsamples = 19\nvalue = [14, 0, 5]"] ;
842 -> 844 ;
845 [label="X[1] <= 2344.9006\ngini = 0.4592\nsamples = 14\nvalue = [9, 0, 5]"] ;
844 -> 845 ;
846 [label="gini = 0.0\nsamples = 3\nvalue = [3, 0, 0]"] ;
845 -> 846 ;
847 [label="X[1] <= 2345.9426\ngini = 0.4959\nsamples = 11\nvalue = [6, 0, 5]"] ;
845 -> 847 ;
848 [label="gini = 0.0\nsamples = 1\nvalue = [0, 0, 1]"] ;
847 -> 848 ;
849 [label="X[0] <= 4285.2871\ngini = 0.48\nsamples = 10\nvalue = [6, 0, 4]"] ;
847 -> 849 ;
850 [label="X[0] <= 4284.4199\ngini = 0.4898\nsamples = 7\nvalue = [3, 0, 4]"] ;
849 -> 850 ;
851 [label="X[1] <= 2347.1794\ngini = 0.375\nsamples = 4\nvalue = [3, 0, 1]"] ;
850 -> 851 ;
852 [label="gini = 0.0\nsamples = 2\nvalue = [2, 0, 0]"] ;
851 -> 852 ;
853 [label="X[1] <= 2348.1494\ngini = 0.5\nsamples = 2\nvalue = [1, 0, 1]"] ;
851 -> 853 ;
854 [label="gini = 0.0\nsamples = 1\nvalue = [0, 0, 1]"] ;
853 -> 854 ;
855 [label="gini = 0.0\nsamples = 1\nvalue = [1, 0, 0]"] ;
853 -> 855 ;
856 [label="gini = 0.0\nsamples = 3\nvalue = [0, 0, 3]"] ;
850 -> 856 ;
857 [label="gini = 0.0\nsamples = 3\nvalue = [3, 0, 0]"] ;
849 -> 857 ;
858 [label="gini = 0.0\nsamples = 5\nvalue = [5, 0, 0]"] ;
844 -> 858 ;
859 [label="X[0] <= 4287.6055\ngini = 0.4339\nsamples = 22\nvalue = [7, 0, 15]"] ;
841 -> 859 ;
860 [label="gini = 0.0\nsamples = 7\nvalue = [0, 0, 7]"] ;
859 -> 860 ;
861 [label="X[1] <= 2349.0444\ngini = 0.4978\nsamples = 15\nvalue = [7, 0, 8]"] ;
859 -> 861 ;
862 [label="X[1] <= 2345.6821\ngini = 0.48\nsamples = 10\nvalue = [6, 0, 4]"] ;
861 -> 862 ;
863 [label="gini = 0.0\nsamples = 2\nvalue = [0, 0, 2]"] ;
862 -> 863 ;
864 [label="X[0] <= 4288.1431\ngini = 0.375\nsamples = 8\nvalue = [6, 0, 2]"] ;
862 -> 864 ;
865 [label="X[1] <= 2346.104\ngini = 0.5\nsamples = 4\nvalue = [2, 0, 2]"] ;
864 -> 865 ;
866 [label="gini = 0.0\nsamples = 2\nvalue = [2, 0, 0]"] ;
865 -> 866 ;
867 [label="gini = 0.0\nsamples = 2\nvalue = [0, 0, 2]"] ;
865 -> 867 ;
868 [label="gini = 0.0\nsamples = 4\nvalue = [4, 0, 0]"] ;
864 -> 868 ;
869 [label="X[1] <= 2350.5049\ngini = 0.32\nsamples = 5\nvalue = [1, 0, 4]"] ;
861 -> 869 ;
870 [label="gini = 0.0\nsamples = 3\nvalue = [0, 0, 3]"] ;
869 -> 870 ;
871 [label="X[1] <= 2351.1128\ngini = 0.5\nsamples = 2\nvalue = [1, 0, 1]"] ;
869 -> 871 ;
872 [label="gini = 0.0\nsamples = 1\nvalue = [1, 0, 0]"] ;
871 -> 872 ;
873 [label="gini = 0.0\nsamples = 1\nvalue = [0, 0, 1]"] ;
871 -> 873 ;
874 [label="X[1] <= 2357.8438\ngini = 0.2355\nsamples = 22\nvalue = [19, 0, 3]"] ;
840 -> 874 ;
875 [label="X[0] <= 4287.9067\ngini = 0.355\nsamples = 13\nvalue = [10, 0, 3]"] ;
874 -> 875 ;
876 [label="X[1] <= 2357.5444\ngini = 0.2778\nsamples = 12\nvalue = [10, 0, 2]"] ;
875 -> 876 ;
877 [label="X[0] <= 4284.3828\ngini = 0.1653\nsamples = 11\nvalue = [10, 0, 1]"] ;
876 -> 877 ;
878 [label="X[0] <= 4284.0962\ngini = 0.4444\nsamples = 3\nvalue = [2, 0, 1]"] ;
877 -> 878 ;
879 [label="gini = 0.0\nsamples = 2\nvalue = [2, 0, 0]"] ;
878 -> 879 ;
880 [label="gini = 0.0\nsamples = 1\nvalue = [0, 0, 1]"] ;
878 -> 880 ;
881 [label="gini = 0.0\nsamples = 8\nvalue = [8, 0, 0]"] ;
877 -> 881 ;
882 [label="gini = 0.0\nsamples = 1\nvalue = [0, 0, 1]"] ;
876 -> 882 ;
883 [label="gini = 0.0\nsamples = 1\nvalue = [0, 0, 1]"] ;
875 -> 883 ;
884 [label="gini = 0.0\nsamples = 9\nvalue = [9, 0, 0]"] ;
874 -> 884 ;
885 [label="X[1] <= 2363.2627\ngini = 0.4567\nsamples = 17\nvalue = [6, 0, 11]"] ;
839 -> 885 ;
886 [label="gini = 0.0\nsamples = 4\nvalue = [0, 0, 4]"] ;
885 -> 886 ;
887 [label="X[1] <= 2364.5002\ngini = 0.497\nsamples = 13\nvalue = [6, 0, 7]"] ;
885 -> 887 ;
888 [label="gini = 0.0\nsamples = 3\nvalue = [3, 0, 0]"] ;
887 -> 888 ;
889 [label="X[1] <= 2367.9744\ngini = 0.42\nsamples = 10\nvalue = [3, 0, 7]"] ;
887 -> 889 ;
890 [label="X[0] <= 4285.5039\ngini = 0.2449\nsamples = 7\nvalue = [1, 0, 6]"] ;
889 -> 890 ;
891 [label="gini = 0.0\nsamples = 5\nvalue = [0, 0, 5]"] ;
890 -> 891 ;
892 [label="X[1] <= 2365.8335\ngini = 0.5\nsamples = 2\nvalue = [1, 0, 1]"] ;
890 -> 892 ;
893 [label="gini = 0.0\nsamples = 1\nvalue = [1, 0, 0]"] ;
892 -> 893 ;
894 [label="gini = 0.0\nsamples = 1\nvalue = [0, 0, 1]"] ;
892 -> 894 ;
895 [label="X[0] <= 4286.2915\ngini = 0.4444\nsamples = 3\nvalue = [2, 0, 1]"] ;
889 -> 895 ;
896 [label="gini = 0.0\nsamples = 2\nvalue = [2, 0, 0]"] ;
895 -> 896 ;
897 [label="gini = 0.0\nsamples = 1\nvalue = [0, 0, 1]"] ;
895 -> 897 ;
898 [label="gini = 0.0\nsamples = 5\nvalue = [5, 0, 0]"] ;
838 -> 898 ;
899 [label="X[0] <= 4289.8428\ngini = 0.4717\nsamples = 126\nvalue = [48, 0, 78]"] ;
837 -> 899 ;
900 [label="gini = 0.0\nsamples = 11\nvalue = [0, 0, 11]"] ;
899 -> 900 ;
901 [label="X[1] <= 2365.5007\ngini = 0.4864\nsamples = 115\nvalue = [48, 0, 67]"] ;
899 -> 901 ;
902 [label="X[1] <= 2364.769\ngini = 0.4959\nsamples = 99\nvalue = [45, 0, 54]"] ;
901 -> 902 ;
903 [label="X[1] <= 2345.3428\ngini = 0.487\nsamples = 93\nvalue = [39, 0, 54]"] ;
902 -> 903 ;
904 [label="X[1] <= 2344.2568\ngini = 0.32\nsamples = 15\nvalue = [3, 0, 12]"] ;
903 -> 904 ;
905 [label="X[1] <= 2343.7446\ngini = 0.5\nsamples = 6\nvalue = [3, 0, 3]"] ;
904 -> 905 ;
906 [label="gini = 0.0\nsamples = 3\nvalue = [0, 0, 3]"] ;
905 -> 906 ;
907 [label="gini = 0.0\nsamples = 3\nvalue = [3, 0, 0]"] ;
905 -> 907 ;
908 [label="gini = 0.0\nsamples = 9\nvalue = [0, 0, 9]"] ;
904 -> 908 ;
909 [label="X[1] <= 2346.1448\ngini = 0.497\nsamples = 78\nvalue = [36, 0, 42]"] ;
903 -> 909 ;
910 [label="gini = 0.0\nsamples = 6\nvalue = [6, 0, 0]"] ;
909 -> 910 ;
911 [label="X[0] <= 4290.7266\ngini = 0.4861\nsamples = 72\nvalue = [30, 0, 42]"] ;
909 -> 911 ;
912 [label="X[0] <= 4290.5146\ngini = 0.4444\nsamples = 12\nvalue = [8, 0, 4]"] ;
911 -> 912 ;
913 [label="X[1] <= 2350.9688\ngini = 0.5\nsamples = 8\nvalue = [4, 0, 4]"] ;
912 -> 913 ;
914 [label="X[1] <= 2346.9392\ngini = 0.375\nsamples = 4\nvalue = [1, 0, 3]"] ;
913 -> 914 ;
915 [label="gini = 0.0\nsamples = 1\nvalue = [1, 0, 0]"] ;
914 -> 915 ;
916 [label="gini = 0.0\nsamples = 3\nvalue = [0, 0, 3]"] ;
914 -> 916 ;
917 [label="X[1] <= 2358.9414\ngini = 0.375\nsamples = 4\nvalue = [3, 0, 1]"] ;
913 -> 917 ;
918 [label="gini = 0.0\nsamples = 3\nvalue = [3, 0, 0]"] ;
917 -> 918 ;
919 [label="gini = 0.0\nsamples = 1\nvalue = [0, 0, 1]"] ;
917 -> 919 ;
920 [label="gini = 0.0\nsamples = 4\nvalue = [4, 0, 0]"] ;
912 -> 920 ;
921 [label="X[1] <= 2356.3394\ngini = 0.4644\nsamples = 60\nvalue = [22, 0, 38]"] ;
911 -> 921 ;
922 [label="X[1] <= 2353.418\ngini = 0.3829\nsamples = 31\nvalue = [8, 0, 23]"] ;
921 -> 922 ;
923 [label="X[1] <= 2352.7754\ngini = 0.4352\nsamples = 25\nvalue = [8, 0, 17]"] ;
922 -> 923 ;
924 [label="X[0] <= 4294.4512\ngini = 0.3856\nsamples = 23\nvalue = [6, 0, 17]"] ;
923 -> 924 ;
925 [label="X[1] <= 2351.7627\ngini = 0.1653\nsamples = 11\nvalue = [1, 0, 10]"] ;
924 -> 925 ;
926 [label="gini = 0.0\nsamples = 8\nvalue = [0, 0, 8]"] ;
925 -> 926 ;
927 [label="X[0] <= 4292.3379\ngini = 0.4444\nsamples = 3\nvalue = [1, 0, 2]"] ;
925 -> 927 ;
928 [label="gini = 0.0\nsamples = 1\nvalue = [1, 0, 0]"] ;
927 -> 928 ;
929 [label="gini = 0.0\nsamples = 2\nvalue = [0, 0, 2]"] ;
927 -> 929 ;
930 [label="X[0] <= 4295.6123\ngini = 0.4861\nsamples = 12\nvalue = [5, 0, 7]"] ;
924 -> 930 ;
931 [label="X[1] <= 2347.0786\ngini = 0.4082\nsamples = 7\nvalue = [5, 0, 2]"] ;
930 -> 931 ;
932 [label="gini = 0.0\nsamples = 1\nvalue = [0, 0, 1]"] ;
931 -> 932 ;
933 [label="X[1] <= 2350.9214\ngini = 0.2778\nsamples = 6\nvalue = [5, 0, 1]"] ;
931 -> 933 ;
934 [label="gini = 0.0\nsamples = 4\nvalue = [4, 0, 0]"] ;
933 -> 934 ;
935 [label="X[1] <= 2352.1633\ngini = 0.5\nsamples = 2\nvalue = [1, 0, 1]"] ;
933 -> 935 ;
936 [label="gini = 0.0\nsamples = 1\nvalue = [0, 0, 1]"] ;
935 -> 936 ;
937 [label="gini = 0.0\nsamples = 1\nvalue = [1, 0, 0]"] ;
935 -> 937 ;
938 [label="gini = 0.0\nsamples = 5\nvalue = [0, 0, 5]"] ;
930 -> 938 ;
939 [label="gini = 0.0\nsamples = 2\nvalue = [2, 0, 0]"] ;
923 -> 939 ;
940 [label="gini = 0.0\nsamples = 6\nvalue = [0, 0, 6]"] ;
922 -> 940 ;
941 [label="X[1] <= 2361.1475\ngini = 0.4994\nsamples = 29\nvalue = [14, 0, 15]"] ;
921 -> 941 ;
942 [label="X[1] <= 2360.3152\ngini = 0.4297\nsamples = 16\nvalue = [11, 0, 5]"] ;
941 -> 942 ;
943 [label="X[1] <= 2359.4531\ngini = 0.4861\nsamples = 12\nvalue = [7, 0, 5]"] ;
942 -> 943 ;
944 [label="X[0] <= 4295.7178\ngini = 0.42\nsamples = 10\nvalue = [7, 0, 3]"] ;
943 -> 944 ;
945 [label="X[1] <= 2358.0698\ngini = 0.3457\nsamples = 9\nvalue = [7, 0, 2]"] ;
944 -> 945 ;
946 [label="gini = 0.0\nsamples = 4\nvalue = [4, 0, 0]"] ;
945 -> 946 ;
947 [label="X[1] <= 2358.3037\ngini = 0.48\nsamples = 5\nvalue = [3, 0, 2]"] ;
945 -> 947 ;
948 [label="gini = 0.0\nsamples = 1\nvalue = [0, 0, 1]"] ;
947 -> 948 ;
949 [label="X[1] <= 2358.8616\ngini = 0.375\nsamples = 4\nvalue = [3, 0, 1]"] ;
947 -> 949 ;
950 [label="gini = 0.0\nsamples = 2\nvalue = [2, 0, 0]"] ;
949 -> 950 ;
951 [label="X[0] <= 4292.1016\ngini = 0.5\nsamples = 2\nvalue = [1, 0, 1]"] ;
949 -> 951 ;
952 [label="gini = 0.0\nsamples = 1\nvalue = [0, 0, 1]"] ;
951 -> 952 ;
953 [label="gini = 0.0\nsamples = 1\nvalue = [1, 0, 0]"] ;
951 -> 953 ;
954 [label="gini = 0.0\nsamples = 1\nvalue = [0, 0, 1]"] ;
944 -> 954 ;
955 [label="gini = 0.0\nsamples = 2\nvalue = [0, 0, 2]"] ;
943 -> 955 ;
956 [label="gini = 0.0\nsamples = 4\nvalue = [4, 0, 0]"] ;
942 -> 956 ;
957 [label="X[0] <= 4295.605\ngini = 0.355\nsamples = 13\nvalue = [3, 0, 10]"] ;
941 -> 957 ;
958 [label="X[0] <= 4291.7891\ngini = 0.1653\nsamples = 11\nvalue = [1, 0, 10]"] ;
957 -> 958 ;
959 [label="X[1] <= 2362.5342\ngini = 0.4444\nsamples = 3\nvalue = [1, 0, 2]"] ;
958 -> 959 ;
960 [label="gini = 0.0\nsamples = 2\nvalue = [0, 0, 2]"] ;
959 -> 960 ;
961 [label="gini = 0.0\nsamples = 1\nvalue = [1, 0, 0]"] ;
959 -> 961 ;
962 [label="gini = 0.0\nsamples = 8\nvalue = [0, 0, 8]"] ;
958 -> 962 ;
963 [label="gini = 0.0\nsamples = 2\nvalue = [2, 0, 0]"] ;
957 -> 963 ;
964 [label="gini = 0.0\nsamples = 6\nvalue = [6, 0, 0]"] ;
902 -> 964 ;
965 [label="X[1] <= 2369.3826\ngini = 0.3047\nsamples = 16\nvalue = [3, 0, 13]"] ;
901 -> 965 ;
966 [label="X[1] <= 2366.3625\ngini = 0.1327\nsamples = 14\nvalue = [1, 0, 13]"] ;
965 -> 966 ;
967 [label="X[0] <= 4292.1396\ngini = 0.375\nsamples = 4\nvalue = [1, 0, 3]"] ;
966 -> 967 ;
968 [label="gini = 0.0\nsamples = 1\nvalue = [1, 0, 0]"] ;
967 -> 968 ;
969 [label="gini = 0.0\nsamples = 3\nvalue = [0, 0, 3]"] ;
967 -> 969 ;
970 [label="gini = 0.0\nsamples = 10\nvalue = [0, 0, 10]"] ;
966 -> 970 ;
971 [label="gini = 0.0\nsamples = 2\nvalue = [2, 0, 0]"] ;
965 -> 971 ;
972 [label="X[1] <= 2346.9438\ngini = 0.248\nsamples = 3117\nvalue = [452, 0, 2665]"] ;
830 -> 972 ;
973 [label="X[0] <= 4434.7021\ngini = 0.3661\nsamples = 597\nvalue = [144, 0, 453]"] ;
972 -> 973 ;
974 [label="X[0] <= 4305.9561\ngini = 0.3319\nsamples = 514\nvalue = [108, 0, 406]"] ;
973 -> 974 ;
975 [label="X[1] <= 2346.627\ngini = 0.4983\nsamples = 34\nvalue = [16, 0, 18]"] ;
974 -> 975 ;
976 [label="X[1] <= 2344.3748\ngini = 0.4978\nsamples = 30\nvalue = [16, 0, 14]"] ;
975 -> 976 ;
977 [label="X[1] <= 2342.8745\ngini = 0.4898\nsamples = 21\nvalue = [9, 0, 12]"] ;
976 -> 977 ;
978 [label="X[1] <= 2342.002\ngini = 0.4444\nsamples = 9\nvalue = [6, 0, 3]"] ;
977 -> 978 ;
979 [label="X[1] <= 2341.0645\ngini = 0.4444\nsamples = 3\nvalue = [1, 0, 2]"] ;
978 -> 979 ;
980 [label="gini = 0.0\nsamples = 1\nvalue = [1, 0, 0]"] ;
979 -> 980 ;
981 [label="gini = 0.0\nsamples = 2\nvalue = [0, 0, 2]"] ;
979 -> 981 ;
982 [label="X[1] <= 2342.5962\ngini = 0.2778\nsamples = 6\nvalue = [5, 0, 1]"] ;
978 -> 982 ;
983 [label="gini = 0.0\nsamples = 4\nvalue = [4, 0, 0]"] ;
982 -> 983 ;
984 [label="X[0] <= 4299.6699\ngini = 0.5\nsamples = 2\nvalue = [1, 0, 1]"] ;
982 -> 984 ;
985 [label="gini = 0.0\nsamples = 1\nvalue = [1, 0, 0]"] ;
984 -> 985 ;
986 [label="gini = 0.0\nsamples = 1\nvalue = [0, 0, 1]"] ;
984 -> 986 ;
987 [label="X[0] <= 4299.4907\ngini = 0.375\nsamples = 12\nvalue = [3, 0, 9]"] ;
977 -> 987 ;
988 [label="gini = 0.0\nsamples = 4\nvalue = [0, 0, 4]"] ;
987 -> 988 ;
989 [label="X[0] <= 4303.6602\ngini = 0.4688\nsamples = 8\nvalue = [3, 0, 5]"] ;
987 -> 989 ;
990 [label="X[1] <= 2344.0085\ngini = 0.375\nsamples = 4\nvalue = [3, 0, 1]"] ;
989 -> 990 ;
991 [label="gini = 0.0\nsamples = 3\nvalue = [3, 0, 0]"] ;
990 -> 991 ;
992 [label="gini = 0.0\nsamples = 1\nvalue = [0, 0, 1]"] ;
990 -> 992 ;
993 [label="gini = 0.0\nsamples = 4\nvalue = [0, 0, 4]"] ;
989 -> 993 ;
994 [label="X[0] <= 4301.3281\ngini = 0.3457\nsamples = 9\nvalue = [7, 0, 2]"] ;
976 -> 994 ;
995 [label="X[0] <= 4299.5156\ngini = 0.48\nsamples = 5\nvalue = [3, 0, 2]"] ;
994 -> 995 ;
996 [label="gini = 0.0\nsamples = 3\nvalue = [3, 0, 0]"] ;
995 -> 996 ;
997 [label="gini = 0.0\nsamples = 2\nvalue = [0, 0, 2]"] ;
995 -> 997 ;
998 [label="gini = 0.0\nsamples = 4\nvalue = [4, 0, 0]"] ;
994 -> 998 ;
999 [label="gini = 0.0\nsamples = 4\nvalue = [0, 0, 4]"] ;
975 -> 999 ;
1000 [label="X[1] <= 2346.918\ngini = 0.3099\nsamples = 480\nvalue = [92, 0, 388]"] ;
974 -> 1000 ;
1001 [label="X[0] <= 4361.6963\ngini = 0.3057\nsamples = 478\nvalue = [90, 0, 388]"] ;
1000 -> 1001 ;
1002 [label="X[1] <= 2345.8052\ngini = 0.2518\nsamples = 264\nvalue = [39, 0, 225]"] ;
1001 -> 1002 ;
1003 [label="X[1] <= 2343.1765\ngini = 0.2179\nsamples = 217\nvalue = [27, 0, 190]"] ;
1002 -> 1003 ;
1004 [label="X[1] <= 2342.8481\ngini = 0.3273\nsamples = 97\nvalue = [20, 0, 77]"] ;
1003 -> 1004 ;
1005 [label="X[0] <= 4355.9937\ngini = 0.2695\nsamples = 81\nvalue = [13, 0, 68]"] ;
1004 -> 1005 ;
1006 [label="X[0] <= 4355.7236\ngini = 0.2991\nsamples = 71\nvalue = [13, 0, 58]"] ;
1005 -> 1006 ;
1007 [label="X[0] <= 4352.0205\ngini = 0.268\nsamples = 69\nvalue = [11, 0, 58]"] ;
1006 -> 1007 ;
1008 [label="X[0] <= 4349.1143\ngini = 0.2919\nsamples = 62\nvalue = [11, 0, 51]"] ;
1007 -> 1008 ;
1009 [label="X[0] <= 4342.1816\ngini = 0.2585\nsamples = 59\nvalue = [9, 0, 50]"] ;
1008 -> 1009 ;
1010 [label="X[0] <= 4337.8569\ngini = 0.3047\nsamples = 48\nvalue = [9, 0, 39]"] ;
1009 -> 1010 ;
1011 [label="X[0] <= 4321.3799\ngini = 0.2355\nsamples = 44\nvalue = [6, 0, 38]"] ;
1010 -> 1011 ;
1012 [label="X[0] <= 4319.0542\ngini = 0.375\nsamples = 16\nvalue = [4, 0, 12]"] ;
1011 -> 1012 ;
1013 [label="X[0] <= 4313.4414\ngini = 0.2449\nsamples = 14\nvalue = [2, 0, 12]"] ;
1012 -> 1013 ;
1014 [label="X[0] <= 4313.0811\ngini = 0.4082\nsamples = 7\nvalue = [2, 0, 5]"] ;
1013 -> 1014 ;
1015 [label="X[1] <= 2342.6152\ngini = 0.2778\nsamples = 6\nvalue = [1, 0, 5]"] ;
1014 -> 1015 ;
1016 [label="gini = 0.0\nsamples = 5\nvalue = [0, 0, 5]"] ;
1015 -> 1016 ;
1017 [label="gini = 0.0\nsamples = 1\nvalue = [1, 0, 0]"] ;
1015 -> 1017 ;
1018 [label="gini = 0.0\nsamples = 1\nvalue = [1, 0, 0]"] ;
1014 -> 1018 ;
1019 [label="gini = 0.0\nsamples = 7\nvalue = [0, 0, 7]"] ;
1013 -> 1019 ;
1020 [label="gini = 0.0\nsamples = 2\nvalue = [2, 0, 0]"] ;
1012 -> 1020 ;
1021 [label="X[0] <= 4328.4902\ngini = 0.1327\nsamples = 28\nvalue = [2, 0, 26]"] ;
1011 -> 1021 ;
1022 [label="gini = 0.0\nsamples = 11\nvalue = [0, 0, 11]"] ;
1021 -> 1022 ;
1023 [label="X[0] <= 4328.8604\ngini = 0.2076\nsamples = 17\nvalue = [2, 0, 15]"] ;
1021 -> 1023 ;
1024 [label="gini = 0.0\nsamples = 1\nvalue = [1, 0, 0]"] ;
1023 -> 1024 ;
1025 [label="X[1] <= 2342.3613\ngini = 0.1172\nsamples = 16\nvalue = [1, 0, 15]"] ;
1023 -> 1025 ;
1026 [label="gini = 0.0\nsamples = 11\nvalue = [0, 0, 11]"] ;
1025 -> 1026 ;
1027 [label="X[1] <= 2342.5195\ngini = 0.32\nsamples = 5\nvalue = [1, 0, 4]"] ;
1025 -> 1027 ;
1028 [label="gini = 0.0\nsamples = 1\nvalue = [1, 0, 0]"] ;
1027 -> 1028 ;
1029 [label="gini = 0.0\nsamples = 4\nvalue = [0, 0, 4]"] ;
1027 -> 1029 ;
1030 [label="X[1] <= 2340.7954\ngini = 0.375\nsamples = 4\nvalue = [3, 0, 1]"] ;
1010 -> 1030 ;
1031 [label="gini = 0.0\nsamples = 1\nvalue = [0, 0, 1]"] ;
1030 -> 1031 ;
1032 [label="gini = 0.0\nsamples = 3\nvalue = [3, 0, 0]"] ;
1030 -> 1032 ;
1033 [label="gini = 0.0\nsamples = 11\nvalue = [0, 0, 11]"] ;
1009 -> 1033 ;
1034 [label="X[1] <= 2341.8022\ngini = 0.4444\nsamples = 3\nvalue = [2, 0, 1]"] ;
1008 -> 1034 ;
1035 [label="gini = 0.0\nsamples = 1\nvalue = [0, 0, 1]"] ;
1034 -> 1035 ;
1036 [label="gini = 0.0\nsamples = 2\nvalue = [2, 0, 0]"] ;
1034 -> 1036 ;
1037 [label="gini = 0.0\nsamples = 7\nvalue = [0, 0, 7]"] ;
1007 -> 1037 ;
1038 [label="gini = 0.0\nsamples = 2\nvalue = [2, 0, 0]"] ;
1006 -> 1038 ;
1039 [label="gini = 0.0\nsamples = 10\nvalue = [0, 0, 10]"] ;
1005 -> 1039 ;
1040 [label="X[0] <= 4333.8452\ngini = 0.4922\nsamples = 16\nvalue = [7, 0, 9]"] ;
1004 -> 1040 ;
1041 [label="X[0] <= 4312.563\ngini = 0.4444\nsamples = 9\nvalue = [6, 0, 3]"] ;
1040 -> 1041 ;
1042 [label="X[0] <= 4310.1357\ngini = 0.4444\nsamples = 3\nvalue = [1, 0, 2]"] ;
1041 -> 1042 ;
1043 [label="gini = 0.0\nsamples = 1\nvalue = [1, 0, 0]"] ;
1042 -> 1043 ;
1044 [label="gini = 0.0\nsamples = 2\nvalue = [0, 0, 2]"] ;
1042 -> 1044 ;
1045 [label="X[1] <= 2342.9749\ngini = 0.2778\nsamples = 6\nvalue = [5, 0, 1]"] ;
1041 -> 1045 ;
1046 [label="gini = 0.0\nsamples = 4\nvalue = [4, 0, 0]"] ;
1045 -> 1046 ;
1047 [label="X[0] <= 4321.5146\ngini = 0.5\nsamples = 2\nvalue = [1, 0, 1]"] ;
1045 -> 1047 ;
1048 [label="gini = 0.0\nsamples = 1\nvalue = [1, 0, 0]"] ;
1047 -> 1048 ;
1049 [label="gini = 0.0\nsamples = 1\nvalue = [0, 0, 1]"] ;
1047 -> 1049 ;
1050 [label="X[0] <= 4340.4688\ngini = 0.2449\nsamples = 7\nvalue = [1, 0, 6]"] ;
1040 -> 1050 ;
1051 [label="X[1] <= 2343.0603\ngini = 0.4444\nsamples = 3\nvalue = [1, 0, 2]"] ;
1050 -> 1051 ;
1052 [label="gini = 0.0\nsamples = 1\nvalue = [1, 0, 0]"] ;
1051 -> 1052 ;
1053 [label="gini = 0.0\nsamples = 2\nvalue = [0, 0, 2]"] ;
1051 -> 1053 ;
1054 [label="gini = 0.0\nsamples = 4\nvalue = [0, 0, 4]"] ;
1050 -> 1054 ;
1055 [label="X[1] <= 2344.7756\ngini = 0.1099\nsamples = 120\nvalue = [7, 0, 113]"] ;
1003 -> 1055 ;
1056 [label="X[1] <= 2344.7314\ngini = 0.1609\nsamples = 68\nvalue = [6, 0, 62]"] ;
1055 -> 1056 ;
1057 [label="X[0] <= 4349.3022\ngini = 0.1155\nsamples = 65\nvalue = [4, 0, 61]"] ;
1056 -> 1057 ;
1058 [label="X[0] <= 4310.2539\ngini = 0.0408\nsamples = 48\nvalue = [1, 0, 47]"] ;
1057 -> 1058 ;
1059 [label="X[0] <= 4309.6836\ngini = 0.375\nsamples = 4\nvalue = [1, 0, 3]"] ;
1058 -> 1059 ;
1060 [label="gini = 0.0\nsamples = 3\nvalue = [0, 0, 3]"] ;
1059 -> 1060 ;
1061 [label="gini = 0.0\nsamples = 1\nvalue = [1, 0, 0]"] ;
1059 -> 1061 ;
1062 [label="gini = 0.0\nsamples = 44\nvalue = [0, 0, 44]"] ;
1058 -> 1062 ;
1063 [label="X[0] <= 4349.4688\ngini = 0.2907\nsamples = 17\nvalue = [3, 0, 14]"] ;
1057 -> 1063 ;
1064 [label="gini = 0.0\nsamples = 1\nvalue = [1, 0, 0]"] ;
1063 -> 1064 ;
1065 [label="X[1] <= 2344.363\ngini = 0.2188\nsamples = 16\nvalue = [2, 0, 14]"] ;
1063 -> 1065 ;
1066 [label="gini = 0.0\nsamples = 8\nvalue = [0, 0, 8]"] ;
1065 -> 1066 ;
1067 [label="X[1] <= 2344.5659\ngini = 0.375\nsamples = 8\nvalue = [2, 0, 6]"] ;
1065 -> 1067 ;
1068 [label="X[0] <= 4358.1201\ngini = 0.4444\nsamples = 3\nvalue = [2, 0, 1]"] ;
1067 -> 1068 ;
1069 [label="gini = 0.0\nsamples = 2\nvalue = [2, 0, 0]"] ;
1068 -> 1069 ;
1070 [label="gini = 0.0\nsamples = 1\nvalue = [0, 0, 1]"] ;
1068 -> 1070 ;
1071 [label="gini = 0.0\nsamples = 5\nvalue = [0, 0, 5]"] ;
1067 -> 1071 ;
1072 [label="X[0] <= 4337.9902\ngini = 0.4444\nsamples = 3\nvalue = [2, 0, 1]"] ;
1056 -> 1072 ;
1073 [label="gini = 0.0\nsamples = 2\nvalue = [2, 0, 0]"] ;
1072 -> 1073 ;
1074 [label="gini = 0.0\nsamples = 1\nvalue = [0, 0, 1]"] ;
1072 -> 1074 ;
1075 [label="X[1] <= 2345.5273\ngini = 0.0377\nsamples = 52\nvalue = [1, 0, 51]"] ;
1055 -> 1075 ;
1076 [label="gini = 0.0\nsamples = 33\nvalue = [0, 0, 33]"] ;
1075 -> 1076 ;
1077 [label="X[1] <= 2345.5403\ngini = 0.0997\nsamples = 19\nvalue = [1, 0, 18]"] ;
1075 -> 1077 ;
1078 [label="gini = 0.0\nsamples = 1\nvalue = [1, 0, 0]"] ;
1077 -> 1078 ;
1079 [label="gini = 0.0\nsamples = 18\nvalue = [0, 0, 18]"] ;
1077 -> 1079 ;
1080 [label="X[1] <= 2345.8701\ngini = 0.3803\nsamples = 47\nvalue = [12, 0, 35]"] ;
1002 -> 1080 ;
1081 [label="gini = 0.0\nsamples = 2\nvalue = [2, 0, 0]"] ;
1080 -> 1081 ;
1082 [label="X[1] <= 2346.3848\ngini = 0.3457\nsamples = 45\nvalue = [10, 0, 35]"] ;
1080 -> 1082 ;
1083 [label="X[1] <= 2346.3491\ngini = 0.4444\nsamples = 21\nvalue = [7, 0, 14]"] ;
1082 -> 1083 ;
1084 [label="X[0] <= 4333.458\ngini = 0.3878\nsamples = 19\nvalue = [5, 0, 14]"] ;
1083 -> 1084 ;
1085 [label="X[1] <= 2346.1921\ngini = 0.2188\nsamples = 8\nvalue = [1, 0, 7]"] ;
1084 -> 1085 ;
1086 [label="gini = 0.0\nsamples = 6\nvalue = [0, 0, 6]"] ;
1085 -> 1086 ;
1087 [label="X[1] <= 2346.3071\ngini = 0.5\nsamples = 2\nvalue = [1, 0, 1]"] ;
1085 -> 1087 ;
1088 [label="gini = 0.0\nsamples = 1\nvalue = [1, 0, 0]"] ;
1087 -> 1088 ;
1089 [label="gini = 0.0\nsamples = 1\nvalue = [0, 0, 1]"] ;
1087 -> 1089 ;
1090 [label="X[1] <= 2346.0713\ngini = 0.4628\nsamples = 11\nvalue = [4, 0, 7]"] ;
1084 -> 1090 ;
1091 [label="X[0] <= 4348.4053\ngini = 0.375\nsamples = 4\nvalue = [3, 0, 1]"] ;
1090 -> 1091 ;
1092 [label="gini = 0.0\nsamples = 3\nvalue = [3, 0, 0]"] ;
1091 -> 1092 ;
1093 [label="gini = 0.0\nsamples = 1\nvalue = [0, 0, 1]"] ;
1091 -> 1093 ;
1094 [label="X[1] <= 2346.1846\ngini = 0.2449\nsamples = 7\nvalue = [1, 0, 6]"] ;
1090 -> 1094 ;
1095 [label="gini = 0.0\nsamples = 4\nvalue = [0, 0, 4]"] ;
1094 -> 1095 ;
1096 [label="X[1] <= 2346.229\ngini = 0.4444\nsamples = 3\nvalue = [1, 0, 2]"] ;
1094 -> 1096 ;
1097 [label="gini = 0.0\nsamples = 1\nvalue = [1, 0, 0]"] ;
1096 -> 1097 ;
1098 [label="gini = 0.0\nsamples = 2\nvalue = [0, 0, 2]"] ;
1096 -> 1098 ;
1099 [label="gini = 0.0\nsamples = 2\nvalue = [2, 0, 0]"] ;
1083 -> 1099 ;
1100 [label="X[0] <= 4346.2002\ngini = 0.2188\nsamples = 24\nvalue = [3, 0, 21]"] ;
1082 -> 1100 ;
1101 [label="X[0] <= 4342.8608\ngini = 0.3367\nsamples = 14\nvalue = [3, 0, 11]"] ;
1100 -> 1101 ;
1102 [label="X[0] <= 4332.5996\ngini = 0.2604\nsamples = 13\nvalue = [2, 0, 11]"] ;
1101 -> 1102 ;
1103 [label="X[0] <= 4324.0957\ngini = 0.4082\nsamples = 7\nvalue = [2, 0, 5]"] ;
1102 -> 1103 ;
1104 [label="gini = 0.0\nsamples = 5\nvalue = [0, 0, 5]"] ;
1103 -> 1104 ;
1105 [label="gini = 0.0\nsamples = 2\nvalue = [2, 0, 0]"] ;
1103 -> 1105 ;
1106 [label="gini = 0.0\nsamples = 6\nvalue = [0, 0, 6]"] ;
1102 -> 1106 ;
1107 [label="gini = 0.0\nsamples = 1\nvalue = [1, 0, 0]"] ;
1101 -> 1107 ;
1108 [label="gini = 0.0\nsamples = 10\nvalue = [0, 0, 10]"] ;
1100 -> 1108 ;
1109 [label="X[0] <= 4361.9629\ngini = 0.363\nsamples = 214\nvalue = [51, 0, 163]"] ;
1001 -> 1109 ;
1110 [label="gini = 0.0\nsamples = 2\nvalue = [2, 0, 0]"] ;
1109 -> 1110 ;
1111 [label="X[1] <= 2346.2844\ngini = 0.3554\nsamples = 212\nvalue = [49, 0, 163]"] ;
1109 -> 1111 ;
1112 [label="X[1] <= 2345.2886\ngini = 0.3311\nsamples = 191\nvalue = [40, 0, 151]"] ;
1111 -> 1112 ;
1113 [label="X[1] <= 2344.876\ngini = 0.3619\nsamples = 156\nvalue = [37, 0, 119]"] ;
1112 -> 1113 ;
1114 [label="X[0] <= 4366.7715\ngini = 0.3316\nsamples = 143\nvalue = [30, 0, 113]"] ;
1113 -> 1114 ;
1115 [label="gini = 0.0\nsamples = 14\nvalue = [0, 0, 14]"] ;
1114 -> 1115 ;
1116 [label="X[0] <= 4372.3838\ngini = 0.3569\nsamples = 129\nvalue = [30, 0, 99]"] ;
1114 -> 1116 ;
1117 [label="X[0] <= 4371.4326\ngini = 0.497\nsamples = 13\nvalue = [7, 0, 6]"] ;
1116 -> 1117 ;
1118 [label="X[1] <= 2343.803\ngini = 0.4959\nsamples = 11\nvalue = [5, 0, 6]"] ;
1117 -> 1118 ;
1119 [label="X[0] <= 4368.7451\ngini = 0.4082\nsamples = 7\nvalue = [2, 0, 5]"] ;
1118 -> 1119 ;
1120 [label="gini = 0.0\nsamples = 3\nvalue = [0, 0, 3]"] ;
1119 -> 1120 ;
1121 [label="X[0] <= 4369.999\ngini = 0.5\nsamples = 4\nvalue = [2, 0, 2]"] ;
1119 -> 1121 ;
1122 [label="gini = 0.0\nsamples = 2\nvalue = [2, 0, 0]"] ;
1121 -> 1122 ;
1123 [label="gini = 0.0\nsamples = 2\nvalue = [0, 0, 2]"] ;
1121 -> 1123 ;
1124 [label="X[0] <= 4368.9141\ngini = 0.375\nsamples = 4\nvalue = [3, 0, 1]"] ;
1118 -> 1124 ;
1125 [label="gini = 0.0\nsamples = 2\nvalue = [2, 0, 0]"] ;
1124 -> 1125 ;
1126 [label="X[1] <= 2344.2903\ngini = 0.5\nsamples = 2\nvalue = [1, 0, 1]"] ;
1124 -> 1126 ;
1127 [label="gini = 0.0\nsamples = 1\nvalue = [1, 0, 0]"] ;
1126 -> 1127 ;
1128 [label="gini = 0.0\nsamples = 1\nvalue = [0, 0, 1]"] ;
1126 -> 1128 ;
1129 [label="gini = 0.0\nsamples = 2\nvalue = [2, 0, 0]"] ;
1117 -> 1129 ;
1130 [label="X[1] <= 2343.5647\ngini = 0.3179\nsamples = 116\nvalue = [23, 0, 93]"] ;
1116 -> 1130 ;
1131 [label="X[1] <= 2341.8735\ngini = 0.2476\nsamples = 76\nvalue = [11, 0, 65]"] ;
1130 -> 1131 ;
1132 [label="X[0] <= 4376.2598\ngini = 0.3488\nsamples = 40\nvalue = [9, 0, 31]"] ;
1131 -> 1132 ;
1133 [label="X[0] <= 4373.5688\ngini = 0.4444\nsamples = 3\nvalue = [2, 0, 1]"] ;
1132 -> 1133 ;
1134 [label="gini = 0.0\nsamples = 1\nvalue = [0, 0, 1]"] ;
1133 -> 1134 ;
1135 [label="gini = 0.0\nsamples = 2\nvalue = [2, 0, 0]"] ;
1133 -> 1135 ;
1136 [label="X[1] <= 2341.8682\ngini = 0.3068\nsamples = 37\nvalue = [7, 0, 30]"] ;
1132 -> 1136 ;
1137 [label="X[0] <= 4393.4907\ngini = 0.2778\nsamples = 36\nvalue = [6, 0, 30]"] ;
1136 -> 1137 ;
1138 [label="gini = 0.0\nsamples = 11\nvalue = [0, 0, 11]"] ;
1137 -> 1138 ;
1139 [label="X[0] <= 4396.2871\ngini = 0.3648\nsamples = 25\nvalue = [6, 0, 19]"] ;
1137 -> 1139 ;
1140 [label="gini = 0.0\nsamples = 2\nvalue = [2, 0, 0]"] ;
1139 -> 1140 ;
1141 [label="X[0] <= 4419.3574\ngini = 0.2873\nsamples = 23\nvalue = [4, 0, 19]"] ;
1139 -> 1141 ;
1142 [label="X[0] <= 4415.6294\ngini = 0.4082\nsamples = 14\nvalue = [4, 0, 10]"] ;
1141 -> 1142 ;
1143 [label="X[1] <= 2341.7344\ngini = 0.2975\nsamples = 11\nvalue = [2, 0, 9]"] ;
1142 -> 1143 ;
1144 [label="X[1] <= 2341.2183\ngini = 0.18\nsamples = 10\nvalue = [1, 0, 9]"] ;
1143 -> 1144 ;
1145 [label="gini = 0.0\nsamples = 6\nvalue = [0, 0, 6]"] ;
1144 -> 1145 ;
1146 [label="X[1] <= 2341.2871\ngini = 0.375\nsamples = 4\nvalue = [1, 0, 3]"] ;
1144 -> 1146 ;
1147 [label="gini = 0.0\nsamples = 1\nvalue = [1, 0, 0]"] ;
1146 -> 1147 ;
1148 [label="gini = 0.0\nsamples = 3\nvalue = [0, 0, 3]"] ;
1146 -> 1148 ;
1149 [label="gini = 0.0\nsamples = 1\nvalue = [1, 0, 0]"] ;
1143 -> 1149 ;
1150 [label="X[1] <= 2341.3994\ngini = 0.4444\nsamples = 3\nvalue = [2, 0, 1]"] ;
1142 -> 1150 ;
1151 [label="gini = 0.0\nsamples = 2\nvalue = [2, 0, 0]"] ;
1150 -> 1151 ;
1152 [label="gini = 0.0\nsamples = 1\nvalue = [0, 0, 1]"] ;
1150 -> 1152 ;
1153 [label="gini = 0.0\nsamples = 9\nvalue = [0, 0, 9]"] ;
1141 -> 1153 ;
1154 [label="gini = 0.0\nsamples = 1\nvalue = [1, 0, 0]"] ;
1136 -> 1154 ;
1155 [label="X[0] <= 4430.5322\ngini = 0.1049\nsamples = 36\nvalue = [2, 0, 34]"] ;
1131 -> 1155 ;
1156 [label="X[0] <= 4398.8335\ngini = 0.0571\nsamples = 34\nvalue = [1, 0, 33]"] ;
1155 -> 1156 ;
1157 [label="gini = 0.0\nsamples = 26\nvalue = [0, 0, 26]"] ;
1156 -> 1157 ;
1158 [label="X[0] <= 4400.2266\ngini = 0.2188\nsamples = 8\nvalue = [1, 0, 7]"] ;
1156 -> 1158 ;
1159 [label="gini = 0.0\nsamples = 1\nvalue = [1, 0, 0]"] ;
1158 -> 1159 ;
1160 [label="gini = 0.0\nsamples = 7\nvalue = [0, 0, 7]"] ;
1158 -> 1160 ;
1161 [label="X[0] <= 4432.6055\ngini = 0.5\nsamples = 2\nvalue = [1, 0, 1]"] ;
1155 -> 1161 ;
1162 [label="gini = 0.0\nsamples = 1\nvalue = [1, 0, 0]"] ;
1161 -> 1162 ;
1163 [label="gini = 0.0\nsamples = 1\nvalue = [0, 0, 1]"] ;
1161 -> 1163 ;
1164 [label="X[1] <= 2343.9146\ngini = 0.42\nsamples = 40\nvalue = [12, 0, 28]"] ;
1130 -> 1164 ;
1165 [label="X[0] <= 4374.7412\ngini = 0.4959\nsamples = 11\nvalue = [6, 0, 5]"] ;
1164 -> 1165 ;
1166 [label="gini = 0.0\nsamples = 1\nvalue = [0, 0, 1]"] ;
1165 -> 1166 ;
1167 [label="X[0] <= 4384.0\ngini = 0.48\nsamples = 10\nvalue = [6, 0, 4]"] ;
1165 -> 1167 ;
1168 [label="gini = 0.0\nsamples = 3\nvalue = [3, 0, 0]"] ;
1167 -> 1168 ;
1169 [label="X[0] <= 4420.5273\ngini = 0.4898\nsamples = 7\nvalue = [3, 0, 4]"] ;
1167 -> 1169 ;
1170 [label="X[1] <= 2343.6343\ngini = 0.4444\nsamples = 6\nvalue = [2, 0, 4]"] ;
1169 -> 1170 ;
1171 [label="X[0] <= 4388.1543\ngini = 0.4444\nsamples = 3\nvalue = [2, 0, 1]"] ;
1170 -> 1171 ;
1172 [label="gini = 0.0\nsamples = 1\nvalue = [0, 0, 1]"] ;
1171 -> 1172 ;
1173 [label="gini = 0.0\nsamples = 2\nvalue = [2, 0, 0]"] ;
1171 -> 1173 ;
1174 [label="gini = 0.0\nsamples = 3\nvalue = [0, 0, 3]"] ;
1170 -> 1174 ;
1175 [label="gini = 0.0\nsamples = 1\nvalue = [1, 0, 0]"] ;
1169 -> 1175 ;
1176 [label="X[0] <= 4394.9932\ngini = 0.3282\nsamples = 29\nvalue = [6, 0, 23]"] ;
1164 -> 1176 ;
1177 [label="X[0] <= 4383.5752\ngini = 0.4444\nsamples = 12\nvalue = [4, 0, 8]"] ;
1176 -> 1177 ;
1178 [label="gini = 0.0\nsamples = 5\nvalue = [0, 0, 5]"] ;
1177 -> 1178 ;
1179 [label="X[0] <= 4385.7295\ngini = 0.4898\nsamples = 7\nvalue = [4, 0, 3]"] ;
1177 -> 1179 ;
1180 [label="gini = 0.0\nsamples = 3\nvalue = [3, 0, 0]"] ;
1179 -> 1180 ;
1181 [label="X[1] <= 2344.6223\ngini = 0.375\nsamples = 4\nvalue = [1, 0, 3]"] ;
1179 -> 1181 ;
1182 [label="gini = 0.0\nsamples = 3\nvalue = [0, 0, 3]"] ;
1181 -> 1182 ;
1183 [label="gini = 0.0\nsamples = 1\nvalue = [1, 0, 0]"] ;
1181 -> 1183 ;
1184 [label="X[0] <= 4415.6172\ngini = 0.2076\nsamples = 17\nvalue = [2, 0, 15]"] ;
1176 -> 1184 ;
1185 [label="gini = 0.0\nsamples = 11\nvalue = [0, 0, 11]"] ;
1184 -> 1185 ;
1186 [label="X[0] <= 4421.3628\ngini = 0.4444\nsamples = 6\nvalue = [2, 0, 4]"] ;
1184 -> 1186 ;
1187 [label="gini = 0.0\nsamples = 1\nvalue = [1, 0, 0]"] ;
1186 -> 1187 ;
1188 [label="X[1] <= 2344.085\ngini = 0.32\nsamples = 5\nvalue = [1, 0, 4]"] ;
1186 -> 1188 ;
1189 [label="X[0] <= 4432.5146\ngini = 0.5\nsamples = 2\nvalue = [1, 0, 1]"] ;
1188 -> 1189 ;
1190 [label="gini = 0.0\nsamples = 1\nvalue = [1, 0, 0]"] ;
1189 -> 1190 ;
1191 [label="gini = 0.0\nsamples = 1\nvalue = [0, 0, 1]"] ;
1189 -> 1191 ;
