digraph Tree {
node [shape=box, style="filled, rounded", color="black", fontname=helvetica] ;
edge [fontname=helvetica] ;
0 [label=<Ch3_rm_pk &le; 3869.0039<br/>gini = 0.6667<br/>samples = 45000<br/>value = [15000, 15000, 15000]<br/>class = Carpet1>, fillcolor="#e5813900"] ;
1 [label=<Ch3_rm_pk &le; 2343.4116<br/>gini = 0.5<br/>samples = 29992<br/>value = [15000, 0, 14992]<br/>class = Carpet1>, fillcolor="#e5813900"] ;
0 -> 1 [labeldistance=2.5, labelangle=45, headlabel="True"] ;
2 [label=<Ch3_rm_pk &le; 2331.7954<br/>gini = 0.0623<br/>samples = 13693<br/>value = [13252, 0, 441]<br/>class = Carpet1>, fillcolor="#e58139f7"] ;
1 -> 2 ;
3 [label=<gini = 0.0127<br/>samples = 12507<br/>value = [12427, 0, 80]<br/>class = Carpet1>, fillcolor="#e58139fd"] ;
2 -> 3 ;
4 [label=<gini = 0.4235<br/>samples = 1186<br/>value = [825, 0, 361]<br/>class = Carpet1>, fillcolor="#e581398f"] ;
2 -> 4 ;
5 [label=<Ch2_rm_pk &le; 4283.916<br/>gini = 0.1915<br/>samples = 16299<br/>value = [1748, 0, 14551]<br/>class = Tile1>, fillcolor="#8139e5e0"] ;
1 -> 5 ;
6 [label=<gini = 0.0844<br/>samples = 997<br/>value = [953, 0, 44]<br/>class = Carpet1>, fillcolor="#e58139f3"] ;
5 -> 6 ;
7 [label=<gini = 0.0985<br/>samples = 15302<br/>value = [795, 0, 14507]<br/>class = Tile1>, fillcolor="#8139e5f1"] ;
5 -> 7 ;
8 [label=<Ch2_rm_pk &le; 4669.8662<br/>gini = 0.0011<br/>samples = 15008<br/>value = [0, 15000, 8]<br/>class = Cobble1>, fillcolor="#39e581ff"] ;
0 -> 8 [labeldistance=2.5, labelangle=-45, headlabel="False"] ;
9 [label=<gini = 0.0<br/>samples = 8<br/>value = [0, 0, 8]<br/>class = Tile1>, fillcolor="#8139e5ff"] ;
8 -> 9 ;
10 [label=<gini = 0.0<br/>samples = 15000<br/>value = [0, 15000, 0]<br/>class = Cobble1>, fillcolor="#39e581ff"] ;
8 -> 10 ;
}