digraph Tree {
node [shape=box, style="filled, rounded", color="black", fontname=helvetica] ;
edge [fontname=helvetica] ;
0 [label=<Ch2_vl &le; -0.0016<br/>gini = 0.6667<br/>samples = 45000<br/>value = [14980, 14963, 15057]<br/>class = Tile>, fillcolor="#8139e501"] ;
1 [label=<gini = 0.0<br/>samples = 14265<br/>value = [0, 14265, 0]<br/>class = Cobble>, fillcolor="#39e581ff"] ;
0 -> 1 [labeldistance=2.5, labelangle=45, headlabel="True"] ;
2 [label=<Ch3_vl &le; 0.5253<br/>gini = 0.5219<br/>samples = 30735<br/>value = [14980, 698, 15057]<br/>class = Tile>, fillcolor="#8139e501"] ;
0 -> 2 [labeldistance=2.5, labelangle=-45, headlabel="False"] ;
3 [label=<Ch3_vl &le; 0.4061<br/>gini = 0.3556<br/>samples = 19217<br/>value = [14980, 600, 3637]<br/>class = Carpet>, fillcolor="#e58139ba"] ;
2 -> 3 ;
4 [label=<Ch2_vl &le; 0.1196<br/>gini = 0.2305<br/>samples = 2009<br/>value = [0, 267, 1742]<br/>class = Tile>, fillcolor="#8139e5d8"] ;
3 -> 4 ;
5 [label=<Ch3_vl &le; 0.3014<br/>gini = 0.4179<br/>samples = 713<br/>value = [0, 212, 501]<br/>class = Tile>, fillcolor="#8139e593"] ;
4 -> 5 ;
6 [label=<gini = 0.0<br/>samples = 27<br/>value = [0, 27, 0]<br/>class = Cobble>, fillcolor="#39e581ff"] ;
5 -> 6 ;
7 [label=<gini = 0.3939<br/>samples = 686<br/>value = [0, 185, 501]<br/>class = Tile>, fillcolor="#8139e5a1"] ;
5 -> 7 ;
8 [label=<Ch2_vl &le; 0.1594<br/>gini = 0.0813<br/>samples = 1296<br/>value = [0, 55, 1241]<br/>class = Tile>, fillcolor="#8139e5f4"] ;
4 -> 8 ;
9 [label=<gini = 0.1797<br/>samples = 491<br/>value = [0, 49, 442]<br/>class = Tile>, fillcolor="#8139e5e3"] ;
8 -> 9 ;
10 [label=<gini = 0.0148<br/>samples = 805<br/>value = [0, 6, 799]<br/>class = Tile>, fillcolor="#8139e5fd"] ;
8 -> 10 ;
11 [label=<Ch3_vl &le; 0.4778<br/>gini = 0.2297<br/>samples = 17208<br/>value = [14980, 333, 1895]<br/>class = Carpet>, fillcolor="#e58139da"] ;
3 -> 11 ;
12 [label=<Ch2_vl &le; 0.3016<br/>gini = 0.1782<br/>samples = 15143<br/>value = [13668, 210, 1265]<br/>class = Carpet>, fillcolor="#e58139e4"] ;
11 -> 12 ;
13 [label=<gini = 0.2616<br/>samples = 9563<br/>value = [8122, 210, 1231]<br/>class = Carpet>, fillcolor="#e58139d3"] ;
12 -> 13 ;
14 [label=<gini = 0.0121<br/>samples = 5580<br/>value = [5546, 0, 34]<br/>class = Carpet>, fillcolor="#e58139fd"] ;
12 -> 14 ;
15 [label=<Ch2_vl &le; 0.3552<br/>gini = 0.4997<br/>samples = 2065<br/>value = [1312, 123, 630]<br/>class = Carpet>, fillcolor="#e5813979"] ;
11 -> 15 ;
16 [label=<gini = 0.5714<br/>samples = 1158<br/>value = [408, 123, 627]<br/>class = Tile>, fillcolor="#8139e54a"] ;
15 -> 16 ;
17 [label=<gini = 0.0066<br/>samples = 907<br/>value = [904, 0, 3]<br/>class = Carpet>, fillcolor="#e58139fe"] ;
15 -> 17 ;
18 [label=<Ch3_vl &le; 0.5413<br/>gini = 0.0169<br/>samples = 11518<br/>value = [0, 98, 11420]<br/>class = Tile>, fillcolor="#8139e5fd"] ;
2 -> 18 ;
19 [label=<Ch2_vl &le; 0.2941<br/>gini = 0.4589<br/>samples = 171<br/>value = [0, 61, 110]<br/>class = Tile>, fillcolor="#8139e572"] ;
18 -> 19 ;
20 [label=<Ch3_vl &le; 0.5371<br/>gini = 0.3292<br/>samples = 77<br/>value = [0, 61, 16]<br/>class = Cobble>, fillcolor="#39e581bc"] ;
19 -> 20 ;
21 [label=<gini = 0.4444<br/>samples = 36<br/>value = [0, 24, 12]<br/>class = Cobble>, fillcolor="#39e5817f"] ;
20 -> 21 ;
22 [label=<gini = 0.1761<br/>samples = 41<br/>value = [0, 37, 4]<br/>class = Cobble>, fillcolor="#39e581e3"] ;
20 -> 22 ;
23 [label=<gini = 0.0<br/>samples = 94<br/>value = [0, 0, 94]<br/>class = Tile>, fillcolor="#8139e5ff"] ;
19 -> 23 ;
24 [label=<Ch3_vl &le; 0.5789<br/>gini = 0.0065<br/>samples = 11347<br/>value = [0, 37, 11310]<br/>class = Tile>, fillcolor="#8139e5fe"] ;
18 -> 24 ;
25 [label=<Ch2_vl &le; 0.3027<br/>gini = 0.1822<br/>samples = 365<br/>value = [0, 37, 328]<br/>class = Tile>, fillcolor="#8139e5e2"] ;
24 -> 25 ;
26 [label=<gini = 0.4861<br/>samples = 48<br/>value = [0, 28, 20]<br/>class = Cobble>, fillcolor="#39e58149"] ;
25 -> 26 ;
27 [label=<gini = 0.0552<br/>samples = 317<br/>value = [0, 9, 308]<br/>class = Tile>, fillcolor="#8139e5f8"] ;
25 -> 27 ;
28 [label=<gini = 0.0<br/>samples = 10982<br/>value = [0, 0, 10982]<br/>class = Tile>, fillcolor="#8139e5ff"] ;
24 -> 28 ;
}