digraph Tree {
node [shape=box, style="filled, rounded", color="black", fontname=helvetica] ;
edge [fontname=helvetica] ;
0 [label=<Ch3_rm_pk &le; 3310.1675<br/>gini = 0.6667<br/>samples = 45000<br/>value = [14980, 14963, 15057]<br/>class = Tile>, fillcolor="#8139e501"] ;
1 [label=<Ch3_rm_pk &le; 2341.8<br/>gini = 0.5225<br/>samples = 30313<br/>value = [14980, 710, 14623]<br/>class = Carpet>, fillcolor="#e5813906"] ;
0 -> 1 [labeldistance=2.5, labelangle=45, headlabel="True"] ;
2 [label=<gini = 0.3673<br/>samples = 16033<br/>value = [12315, 432, 3286]<br/>class = Carpet>, fillcolor="#e58139b5"] ;
1 -> 2 ;
3 [label=<gini = 0.3345<br/>samples = 14280<br/>value = [2665, 278, 11337]<br/>class = Tile>, fillcolor="#8139e5be"] ;
1 -> 3 ;
4 [label=<Ch3_rm_pk &le; 3781.9414<br/>gini = 0.0574<br/>samples = 14687<br/>value = [0, 14253, 434]<br/>class = Cobble>, fillcolor="#39e581f7"] ;
0 -> 4 [labeldistance=2.5, labelangle=-45, headlabel="False"] ;
5 [label=<gini = 0.4793<br/>samples = 1090<br/>value = [0, 656, 434]<br/>class = Cobble>, fillcolor="#39e58156"] ;
4 -> 5 ;
6 [label=<gini = 0.0<br/>samples = 13597<br/>value = [0, 13597, 0]<br/>class = Cobble>, fillcolor="#39e581ff"] ;
4 -> 6 ;
}